tree
version=v4
num_class=1
num_tree_per_iteration=1
label_index=0
max_feature_idx=49
objective=binary sigmoid:1
feature_names=Column_0 Column_1 Column_2 Column_3 Column_4 Column_5 Column_6 Column_7 Column_8 Column_9 Column_10 Column_11 Column_12 Column_13 Column_14 Column_15 Column_16 Column_17 Column_18 Column_19 Column_20 Column_21 Column_22 Column_23 Column_24 Column_25 Column_26 Column_27 Column_28 Column_29 Column_30 Column_31 Column_32 Column_33 Column_34 Column_35 Column_36 Column_37 Column_38 Column_39 Column_40 Column_41 Column_42 Column_43 Column_44 Column_45 Column_46 Column_47 Column_48 Column_49
feature_infos=[-1.0730127096176147:13.777346611022949] [-0.78117483854293823:17.85626220703125] [-1.7713570594787598:7.889711856842041] [-1.7161275148391724:5.4763474464416504] [-0.58529931306838989:17.121776580810547] [-0.25452762842178345:16.237543106079102] none [-0.11521235853433609:8.6796245574951172] [-0.28996849060058594:15.859267234802246] [-0.11860820651054382:30.417379379272461] [-0.34103620052337646:13.788244247436523] [-0.24809800088405609:12.2821044921875] none [-0.60414481163024902:10.937439918518066] [-9.3960475921630859:0.10642772912979126] [-1.05173659324646:0.95080834627151489] [-0.13229140639305115:7.5590696334838867] [-0.15067856013774872:6.6366438865661621] [-0.86660647392272949:1.1539262533187866] [-1.7033109664916992:14.560589790344238] [-1.4464759826660156:5.1016273498535156] [-0.35400450229644775:7.3788537979125977] none [-0.29643189907073975:7.839850902557373] [-0.24608504772186279:4.0636358261108398] [-0.70492786169052124:2.2160334587097168] [-1.0146143436431885:1.5675461292266846] [-0.44807198643684387:2.2317843437194824] [-2.3259956836700439:0.42992338538169861] [-0.57534879446029663:1.7380762100219727] [-0.33665677905082703:2.9703843593597412] [-0.24722568690776825:4.0448870658874512] [-0.43577632308006287:2.7652714252471924] [-0.52380567789077759:1.9091049432754517] [-0.074366778135299683:13.446865081787109] [-0.11915864795446396:8.3921728134155273] [-0.070172131061553955:14.25067138671875] [-0.3845023512840271:2.600764274597168] [-0.71710097789764404:1.3945037126541138] [-0.18240432441234589:5.4823260307312012] [-0.17706815898418427:5.6475424766540527] [-7.8887186050415039:0.17498230934143066] [-1.2441537380218506:1.1948851346969604] [-1.5225052833557129:0.72755789756774902] [-3.4418885707855225:0.39693427085876465] [-1.5526646375656128:1.0937724113464355] [-1.463692307472229:0.76398032903671265] [-4.277984619140625:47.485061645507812] [-48.180648803710938:2.7852883338928223] [-10.480441093444824:35.053108215332031]
tree_sizes=4408 4615 4611 5452 6769 4723 4623 5137 5415 6650 4319 4810 4615 4942 4941 6836 5044 5642 5869 5986 6562 4941 6740 6869 6668 5374 6323 5611 6333 6853 6885 6243 6830 6840 6853 5803 6841 6885 6874 6810 6848 6699 6796 6845 6801 6776 6829 6883 6873 6726 6832 6851 6834 6818 6890 6852 6845 6841 6794 6802 6864 6807 6824 6803 6809 6851 6840 6796 6802 6822 6862 6771 6847 6797 6824 6824 6797 6903 6794 6754 6881 6874 6811 6812 6825 6913 6809 6836 6868 6847 6879 6901 6860 6815 6769 6873 6863 6925 6836 6842 6884 6847 6861 6857 6845 6818 6865 6807 6830 6796 6847 6893 6840 6898 6879 6931 6815 6835 6826 6874 6771 6858 6815 6859 6827 6817 6854 6756 6850 6652 6754 6863 6800 6835 6823 6875 6734 6864 6724 6810 6823 6809 6795 6795 6751 6922 6822 6828 6677 6909 6853 6751 6812 6807 6747 6951 6742 6821 6780 6743 6747 6781 6793 6830 6814 6820 6738 6835 6803 6756 6808 6760 6772 6737 6693 6677 6537 6762 6717 6815 6677 6666 6744 6714 6688 6680 6668 6768 6551 6725 6717 6620 6757 6683 6781 6671 6723 6601 6766 6706 6699 6798 6691 6684 6642 6635 6611 6741 6604 6699 6682 6770 6619 6770 6773 6699 6662 6765 6703 6649 6585 6597 6527 6574 6440 6529 6616 6509 6591 6590 6573 6561 6606 6688 6557 6624 6440 6702 6631

Tree=0
num_leaves=40
num_cat=0
split_feature=46 25 33 28 32 37 33 4 2 0 38 26 10 28 32 13 26 20 4 23 10 13 37 26 4 25 2 26 25 25 25 13 25 47 13 13 25 26 0
split_gain=2684.6 2726.01 323.281 227.442 149.363 72.252 66.4256 60.4639 50.5331 41.1133 34.5669 27.3143 27.2813 19.4358 16.2539 15.4827 14.5948 16.7862 12.538 9.29764 7.50585 7.23469 6.59346 6.54503 10.1578 8.01882 5.6683 4.11037 27.0091 3.76969 3.54801 2.64017 1.58947 1.19061 0.903075 0.847564 0.839734 0.670256 0.474717
threshold=-0.90677414834499348 -0.70355910062789906 1.0000000180025095e-35 1.0000000180025095e-35 -0.43038383126258845 1.0000000180025095e-35 1.0000000180025095e-35 0.54151454567909252 -0.96626791357994068 -1.0000000180025095e-35 1.0000000180025095e-35 0.24771846830844882 1.0000000180025095e-35 1.0000000180025095e-35 -1.0000000180025095e-35 -0.34419919550418848 -1.0142436623573301 0.56676071882247936 0.86346137523651134 1.0000000180025095e-35 1.0000000180025095e-35 -0.44817742705345148 1.0000000180025095e-35 1.562483072280884 0.21956773288547995 0.1901582404971123 -0.42954186350107187 -0.93971970677375782 0.041990172117948539 0.38823308050632482 -0.40801332890987391 0.17569204047322276 1.2499863505363467 1.2816638350486758 0.59160500764846813 -0.44817742705345148 0.26698723435401922 -0.33967070281505579 1.0000000180025095e-35
decision_type=2 2 2 2 2 2 2 2 2 2 2 2 2 2 2 2 2 2 2 2 2 2 2 2 2 2 2 2 2 2 2 2 2 2 2 2 2 2 2
left_child=7 3 19 6 5 8 16 13 12 -9 29 -8 -5 15 38 -1 17 21 20 23 -10 -2 33 27 25 31 37 28 -3 -4 -21 -25 -11 -15 35 -28 -30 -22 -6
right_child=1 2 10 4 14 -7 11 9 18 32 -12 -13 -14 22 -16 -17 -18 -19 -20 30 26 -23 -24 24 -26 -27 34 -29 36 -31 -32 -33 -34 -35 -36 -37 -38 -39 -40
leaf_value=-0.014101725433353168 -0.09162247637207438 -0.17649719318891488 -0.044651681840232375 -0.029777806139118942 -0.17031426641815606 -0.16599666293790927 0.010547808918136656 -0.15140393155385154 0.014960643028312792 0.0037004546230533508 -0.121328164971863 -0.11234485007554046 -0.15471449565415421 0.016298135485385695 -0.057867533785613365 -0.1092886812248514 -0.1687166630925121 -0.0419333900750989 -0.065374133315966504 -0.098529934884543924 -0.060134890633961949 -0.16191108261428616 -0.037215696073273755 -0.1554777559446453 -0.1782562126809738 -0.082688591298167552 -0.004488729438405184 -0.17950701745708542 -0.10928869011704266 0.011878057859194185 -0.15063127319430397 -0.10987413989592915 -0.049525715477146945 -0.032833563762575464 0.010513288858428019 -0.042223953164141556 -0.085284655293007813 -0.028861034780829901 -0.13271794000483361
leaf_weight=14.473440140485765 6.2385521829128274 58.642436921596527 6.2385457754135158 9.4825996756553632 7.9853467643261018 5.4899259209632865 12.227562159299852 8.9835151135921496 273.24877101182938 6.2385518848896009 6.4880942404270163 6.2385523021221152 6.4880942702293387 477.87309372425079 4.9908725023269644 5.2403847575187674 22.458776146173477 5.7394680082797995 6.2385520637035361 6.2385521531105033 7.9853472113609314 9.2330689430236816 8.9835151433944684 18.216604530811317 29.695508152246475 5.9890102446079245 7.9853469133377102 760.60399174690247 5.2403839230537397 21.959710121154785 8.7339730858802778 5.9890094995498648 4.9908418357372284 4.9908416271209708 24.205582290887833 8.9835149049758893 7.7358046472072601 5.489925801753996 8.2348888516426069
leaf_count=58 25 235 25 38 32 22 49 36 1095 25 26 25 26 1915 20 21 90 23 25 25 32 37 36 73 119 24 32 3048 21 88 35 24 20 20 97 36 31 22 33
internal_value=-0.0856473 -0.122413 -0.170352 -0.0196116 -0.00502277 0.00267264 -0.107878 0.00970273 0.00555304 -0.0759049 -0.0220734 -0.0304655 -0.081907 0.0130499 -0.131977 -0.0395658 -0.141228 -0.109467 0.0096948 -0.176091 0.0110419 -0.135956 0.0150509 -0.176784 -0.156894 -0.133429 -0.0100977 -0.178122 -0.162251 0.00137511 -0.131401 -0.145802 -0.0146587 0.0159108 -0.00036961 -0.0206596 -0.0956188 -0.0440055 -0.155359
internal_weight=1912.49 1380.72 941.772 438.945 376.809 355.598 62.136 531.774 350.108 20.2129 34.6864 18.4661 15.9707 511.561 21.2111 19.7138 43.6699 21.2111 334.137 907.085 327.898 15.4716 491.847 892.113 59.8901 30.1946 54.6497 832.223 71.6186 28.1983 14.9725 24.2056 11.2294 482.864 41.1744 16.9689 12.9762 13.4753 16.2202
internal_count=7664 5533 3774 1759 1510 1425 249 2131 1403 81 139 74 64 2050 85 79 175 85 1339 3635 1314 62 1971 3575 240 121 219 3335 287 113 60 97 45 1935 165 68 52 54 65
is_linear=0
shrinkage=1


Tree=1
num_leaves=42
num_cat=0
split_feature=46 25 16 28 37 4 26 26 0 4 10 25 0 45 13 45 26 0 28 13 13 0 19 11 26 37 26 4 49 26 4 49 1 49 4 25 13 26 13 49 5
split_gain=2424.04 2472.77 208.126 205.041 68.4066 54.1241 51.0142 50.2322 37.6239 37.102 25.5243 22.6928 26.8164 21.1633 25.7332 26.1293 18.768 22.5605 17.3801 14.0817 8.3534 7.812 12.2881 7.7706 7.74278 5.82365 5.24588 10.068 6.40519 4.69923 3.33564 2.66934 2.63832 1.56414 1.53653 1.43114 1.34839 1.15348 1.12645 6.04772 0.201346
threshold=-0.90677414834499348 -0.70355910062789906 1.0000000180025095e-35 1.0000000180025095e-35 1.0000000180025095e-35 0.54151454567909252 -1.0142436623573301 -1.0142436623573301 1.0000000180025095e-35 0.86346137523651134 1.0000000180025095e-35 0.38823308050632482 0.78328223526477825 -0.89105536788702 0.59160500764846813 -1.0000000180025095e-35 1.562483072280884 -0.70175373554229725 1.0000000180025095e-35 -0.34419919550418848 -0.44817742705345148 0.78328223526477825 0.32967667281627661 1.0000000180025095e-35 -0.90664806962013234 1.0000000180025095e-35 1.562483072280884 -1.0000000180025095e-35 -0.0048998421989381305 1.2422144412994387 -0.42432591319084162 -0.20312955975532529 1.0000000180025095e-35 -0.42514684796333307 -0.42432591319084162 1.2499863505363467 1.8393439650535586 -0.56413957476615895 -0.44817742705345148 -0.040581190958619111 1.0000000180025095e-35
decision_type=2 2 2 2 2 2 2 2 2 2 2 2 2 2 2 2 2 2 2 2 2 2 2 2 2 2 2 2 2 2 2 2 2 2 2 2 2 2 2 2 2
left_child=5 3 11 6 7 18 10 23 -7 13 38 26 16 -9 15 21 24 -18 19 -1 -17 22 32 -5 -13 -20 33 28 -28 -8 36 -26 -15 -3 -30 -10 -16 -34 -2 -40 -35
right_child=1 2 -4 4 -6 8 29 9 35 -11 -12 12 -14 14 30 20 17 -19 25 -21 -22 -23 -24 -25 31 -27 27 -29 34 -31 -32 -33 37 40 -36 -37 -38 -39 39 -41 -42
leaf_value=0.068082093507608285 0.053559258317136142 -0.047756415940806748 0.093436459459140295 0.095932376287583776 -0.073302352821866631 -0.063023627647173924 -0.0783908042827621 0.094609378343774031 0.085357988959320938 -0.051594479967780542 -0.057376350392951962 -0.012108004073186289 0.03821043377927056 -0.011911090603112663 0.023620461501848558 0.078387513120972946 -0.07267645370671072 0.050231784660023572 0.096320304306743335 -0.022671167205503624 0.018157383434577769 0.043754555475010892 0.039965637395760006 0.044305518519487476 -0.037979356902943989 0.046188904681357772 0.0013144702292139337 -0.088717553153849979 -0.065873870908095308 -0.018857443437792901 0.093446092871114023 -0.084444716258569849 -0.024385225886358206 -0.088994245812179684 -0.027342851132158986 0.034580812240582626 0.067245390184984974 -0.066329998253821618 0.057679862654438509 -0.010262626798333839 -0.074237506655812441
leaf_weight=14.499279826879503 14.737492591142654 6.7067915350198737 15.99897241592407 221.4674945473671 6.7046774029731742 8.9486192315816897 23.592626675963405 34.738507255911827 6.2499785721302015 6.9801256060600272 7.2113010287284842 4.9893709123134604 5.9830600768327704 8.9786085784435308 5.4937631338834745 20.242503091692928 6.2124380320310593 6.7385044842958433 483.7168730199337 5.2343540936708441 9.2385189384222013 5.9924053847789756 6.4952971190214148 10.491778135299681 6.2115073204040518 8.996884346008299 6.2241307049989727 28.037473022937775 13.430888608098034 4.9783550947904578 24.248328313231468 58.292112395167351 5.2344260215759286 727.47949220240116 6.4714604914188358 4.9969352185726166 5.248471662402153 5.7330836802721015 5.9979806840419769 5.4768783450126648 43.667886838316917
leaf_count=58 59 27 64 886 27 36 95 139 25 28 29 20 24 36 22 81 25 27 1935 21 37 24 26 42 25 36 25 113 54 20 97 235 21 2933 26 20 21 23 24 22 176
internal_value=-3.02466e-06 -0.0350714 -0.0809592 0.0627007 0.0765228 0.0904592 -0.0212184 0.0794369 0.00939936 0.0548362 0.0204489 -0.0840941 -0.0584493 0.0608636 0.0478726 0.0276416 -0.0658978 -0.00935102 0.0936195 0.0438362 0.060892 -0.00334947 -0.0154123 0.0938189 -0.0760829 0.0955104 -0.0867401 -0.067554 -0.0422249 -0.069175 0.0817693 -0.0806947 -0.0347315 -0.0879813 -0.0554918 0.067872 0.0492723 -0.0504393 0.0433649 0.0266274 -0.0882623
internal_weight=1908.37 1375.73 936.444 439.283 377.288 532.643 61.9946 370.583 20.1955 138.624 33.4237 920.445 88.427 131.644 96.9054 61.9148 82.4439 12.9509 512.447 19.7336 29.481 32.4338 26.4414 231.959 69.493 492.714 832.018 54.164 26.1265 28.571 34.9906 64.5036 19.9461 777.854 19.9023 11.2469 10.7422 10.9675 26.2124 11.4749 771.147
internal_count=7664 5533 3774 1759 1510 2131 249 1483 81 555 134 3710 356 527 388 248 332 52 2050 79 118 130 106 928 280 1971 3354 218 105 115 140 260 80 3136 80 45 43 44 105 46 3109
is_linear=0
shrinkage=0.05


Tree=2
num_leaves=42
num_cat=0
split_feature=46 25 16 28 2 4 37 26 48 4 25 10 44 21 28 26 4 25 26 13 26 26 13 25 26 37 45 2 25 26 11 26 13 26 13 19 21 26 45 45 25
split_gain=2198.25 2251.84 190.21 185.815 80.4642 48.8252 47.5531 46.6056 29.2633 27.0118 26.0031 23.3367 19.0591 18.0178 15.7558 13.3327 15.9015 25.1073 12.8548 12.8438 7.49561 8.09656 7.13001 6.74014 6.34106 5.24696 4.38439 4.00131 3.76584 16.0321 3.27649 2.09693 2.04152 1.86179 1.73022 1.71781 1.53703 1.21948 1.16015 0.493607 0.0626046
threshold=-0.90677414834499348 -0.70355910062789906 1.0000000180025095e-35 1.0000000180025095e-35 -0.96626791357994068 0.54151454567909252 1.0000000180025095e-35 -1.0142436623573301 1.0000000180025095e-35 0.86346137523651134 0.93939849734306347 1.0000000180025095e-35 -2.4821828603744502 -0.12777725607156751 1.0000000180025095e-35 1.562483072280884 0.21956773288547995 0.17765162140130999 1.2496665716171267 -0.34419919550418848 -0.89066264033317555 -0.62089720368385304 -0.55215567350387562 1.9292161464691164 -0.82934343814849842 1.0000000180025095e-35 -0.89105536788702 -0.42954186350107187 0.38823308050632482 -1.0142436623573301 1.0000000180025095e-35 -0.82934343814849842 1.007517993450165 -0.025757122784852978 0.17569204047322276 0.083253924734890475 1.8054373264312746 1.3965346217155459 -0.89105536788702 -1.0000000180025095e-35 -0.41433079540729517
decision_type=2 2 2 2 2 2 2 2 2 2 2 2 2 2 2 2 2 2 2 2 2 2 2 2 2 2 2 2 2 2 2 2 2 2 2 2 2 2 2 2 2
left_child=5 3 8 7 13 14 9 11 15 12 -7 27 -6 24 19 28 17 34 33 -1 30 22 -22 -12 -5 36 -9 -2 -3 -30 -14 -24 37 -10 40 -29 -16 -31 -23 -40 -17
right_child=1 2 -4 4 6 10 -8 26 18 -11 23 -13 20 -15 25 16 -18 -19 -20 -21 21 38 31 -25 -26 -27 -28 35 29 32 -32 -33 -34 -35 -36 -37 -38 -39 39 -41 -42
leaf_value=0.064939323277867333 0.01069350975334293 -0.085169999241913319 0.089259232129731136 0.056014367810719751 0.0084137559422317858 0.079364325497789878 -0.065122440401736051 -0.022982937145006273 -0.026945515810011218 -0.0061346541708245661 -0.062004674744521399 -0.055088318496581412 0.092027800667967188 -0.072649942615290009 0.09218488232065751 -0.080895308788240375 -0.083997129616539185 0.032711447494681294 0.032261897419537652 -0.021744989010824192 0.067219742397353441 0.092103962046796023 0.028969495497637544 0.0069371547824108749 -0.010269671038504345 0.044097009081254163 -0.076712531904742753 0.032980151225383662 0.01057460415341863 -0.082432983150026104 0.050532848426606353 -0.011592147602129902 -0.032509819255693552 -0.069057513698072476 -0.026678444483972621 0.07237809666856139 0.044990253804919146 -0.04682906381106143 0.060810159135398625 0.086024647266710191 -0.048861681504813001
leaf_weight=14.489439606666567 8.4838996380567568 755.54470865428448 15.957890033721922 4.9938511848449698 8.7268914580345136 7.226216301321986 4.9307917803525916 6.1981254667043713 9.1448517888784409 8.46737492084503 7.1843243539333326 7.1776339411735526 222.5917335152626 8.4494509249925596 477.24381136894226 8.4150653928518313 29.986204653978348 9.7268636375665647 6.710802510380744 5.2272134721279135 10.977347016334535 29.178787797689438 5.4935982078313828 5.7241382151842117 8.2119328826665896 8.9998186826705915 22.181528255343437 9.4860907495021838 5.4892454147338858 52.879638403654099 9.4959262609481794 5.2402141988277418 4.9347765743732444 5.688862308859826 5.7192146778106681 8.2410170286893827 4.9863368272781363 8.1352710127830488 36.178844809532166 13.47824853658676 9.6462782323360461
leaf_count=58 34 3076 64 20 35 29 20 25 37 34 29 29 893 34 1915 34 122 39 27 21 44 117 22 23 33 36 90 38 22 215 38 21 20 23 23 33 20 33 145 54 39
internal_value=-6.19461e-06 -0.0335669 -0.0776543 0.0597538 0.0729198 0.0862174 0.0786244 -0.0202832 -0.0806749 0.0808446 0.00908687 0.0195007 0.0830283 -0.0196583 0.0892234 -0.0820732 -0.0577258 -0.0323176 -0.0215799 0.0417762 0.0849398 0.0711179 0.040548 -0.0327729 0.0166227 0.0910289 -0.0663298 0.0413839 -0.0838646 -0.069004 0.0905756 0.00944099 -0.0757613 -0.0467531 -0.0593646 0.0544494 0.0918013 -0.0785981 0.0788608 0.0693158 -0.0675099
internal_weight=1897.24 1366.16 927.98 438.183 376.415 531.081 354.76 61.7683 912.022 349.829 20.1347 33.3886 341.362 21.6552 510.947 890.477 63.4936 33.5074 21.5445 19.7167 332.635 100.547 21.7112 12.9085 13.2058 491.23 28.3797 26.211 826.984 71.4389 232.088 10.7338 65.9497 14.8337 23.7806 17.7271 482.23 61.0149 78.8359 49.6571 18.0613
internal_count=7664 5533 3774 1759 1510 2131 1423 249 3710 1403 81 134 1369 87 2050 3623 257 135 87 79 1334 403 87 52 53 1971 115 105 3366 290 931 43 268 60 96 71 1935 248 316 199 73
is_linear=0
shrinkage=0.05


Tree=3
num_leaves=50
num_cat=0
split_feature=25 25 33 28 2 5 48 33 48 28 38 33 25 25 31 2 5 25 49 0 13 3 19 20 13 13 2 13 19 13 2 38 25 13 0 2 25 25 20 13 0 3 25 13 2 2 13 13 0
split_gain=1606.1 1985.11 303.311 160.812 71.878 60.0038 58.3804 51.7949 34.8249 29.5363 28.2331 25.2919 19.4084 22.1462 18.0219 16.3594 12.2518 10.2213 10.1316 10.0505 9.09899 8.54275 7.63404 7.08899 7.07348 7.05144 6.77117 13.0227 9.35032 6.32796 25.3931 10.0208 5.68466 3.92692 3.38664 6.41787 3.0809 3.06569 2.8887 2.748 2.15725 2.05212 1.62403 1.47573 1.47209 1.24572 5.113 0.766788 0.722245
threshold=-0.70355910062789906 1.3898186683654787 1.0000000180025095e-35 1.0000000180025095e-35 -0.96626791357994068 6.1590559482574472 1.0000000180025095e-35 1.0000000180025095e-35 1.0000000180025095e-35 1.0000000180025095e-35 1.0000000180025095e-35 1.0000000180025095e-35 0.73575007915496837 0.75751051306724559 1.0000000180025095e-35 -0.42954186350107187 1.0000000180025095e-35 1.7313231825828554 0.11007339134812356 -1.0000000180025095e-35 0.90353974699974071 -0.29261685907840723 0.20646530389785769 1.0141466259956362 -0.55215567350387562 -0.24022094160318372 -0.42954186350107187 -0.13624269142746923 0.69931077957153331 -0.44817742705345148 0.6439102590084077 -1.0000000180025095e-35 -0.29370820522308344 -0.55215567350387562 1.0000000180025095e-35 -0.42954186350107187 -0.43055079877376551 1.0932214856147768 -0.77539709210395802 0.17569204047322276 -0.70175373554229725 1.9550315737724306 -0.12789230048656461 1.007517993450165 1.1806362867355349 -0.42954186350107187 -0.13624269142746923 0.27967028319835668 -0.70175373554229725
decision_type=2 2 2 2 2 2 2 2 2 2 2 2 2 2 2 2 2 2 2 2 2 2 2 2 2 2 2 2 2 2 2 2 2 2 2 2 2 2 2 2 2 2 2 2 2 2 2 2 2
left_child=3 2 5 6 11 8 7 23 12 -3 37 18 16 -14 26 38 29 19 -5 21 24 -11 39 45 32 -9 27 48 47 30 34 40 -18 -15 -2 -36 -17 42 -10 -16 -32 -19 -4 -31 -42 -1 -47 -29 -6
right_child=1 9 10 4 14 -7 -8 25 15 17 -12 -13 13 33 22 36 20 41 -20 -21 -22 -23 -24 -25 -26 -27 -28 28 -30 43 31 -33 -34 -35 35 -37 -38 -39 -40 -41 44 -43 -44 -45 -46 46 -48 -49 -50
leaf_value=-0.079075405716780137 -0.079623594389960375 -0.0074001971790539417 0.042356231544956664 -0.06082433173029636 0.049207481438381516 0.073080260614792808 0.07990317353435944 0.069796373693074079 -0.066094946617342859 0.047349089187124244 -0.020548342871928318 0.075415956107550197 0.029446587228050471 -0.030218767481841876 -0.025092444777211367 0.058445709927448547 -0.056371245572178111 0.087666608775827076 0.0078264772273895569 0.07526921714652883 0.006941358162159194 -0.032079112896722252 0.066564594054499146 -0.010424661669266444 -0.076675785191948564 0.0019093330512689943 0.08520039781319548 -0.0074507535718968789 0.07124320600296323 -0.083361934847179395 -0.025374790886444155 -0.06812954504524131 -0.0040495192017357493 -0.074681764161459052 -0.073969024039464842 -0.03226496284165694 0.0031815383215229374 0.033936393688863781 -0.013910268673374049 0.02239277595912767 0.02848599825767725 0.041370869151143463 0.088343570375350122 -0.066825685714463595 -0.0034414069402374571 -0.0056304140306107798 -0.069273709057306163 0.014536332533376335 0.079965053567389616
leaf_weight=18.646211430430409 185.65468969941139 8.9464178979396802 5.6985326111316672 11.377485558390623 9.1701873242855054 6.202288717031478 15.167237386107443 9.9642578214406985 7.6160196214914322 6.9295347779989243 9.1303141713142377 6.4772318154573432 8.6016184240579587 10.539778143167498 5.1994436234235746 4.9504886120557785 11.446966499090196 254.15176467597485 8.9333881437778455 17.086308941245079 5.6396776735782614 4.9313490986824053 5.7197577953338614 7.1716448813676825 24.80974954366684 6.2005146294832221 392.11652667820454 5.9624515175819415 7.9539096653461447 507.37025570869446 4.877480342984204 6.7957009375095359 9.5663405954837781 16.613781660795212 30.604556500911713 17.300843462347984 4.9408107846975309 6.4513491094112387 5.1826247274875659 4.967460498213768 5.396425724029541 5.4649196416139594 25.806307971477512 43.768947437405586 7.323277547955513 5.1907778531312934 8.8392037153244036 7.9374207705259323 73.344122290611267
leaf_count=76 765 36 23 46 37 25 61 40 31 28 37 26 35 43 21 20 47 1027 36 69 23 20 23 29 102 25 1583 24 32 2092 20 28 39 68 126 71 20 26 21 20 22 22 104 180 30 21 36 32 296
internal_value=-7.22276e-06 -0.0320455 -0.0666216 0.066583 0.0758927 -0.0729308 -0.00393941 -0.0277335 -0.074 0.08078 0.0561821 -0.00364207 -0.0755494 -0.0375841 0.0800598 -0.0119796 -0.0770756 0.0835473 -0.0314445 0.0516418 -0.0511284 0.0140102 0.0251895 -0.0580245 -0.0583777 0.0456757 0.0817513 0.0680598 0.0313273 -0.0786546 -0.0708123 -0.0209386 -0.0340448 -0.0592872 -0.0758882 -0.0599777 0.0341265 0.0748215 -0.0478654 -0.00151619 0 0.0868738 0.0817383 -0.0821812 0.0108286 -0.0677032 -0.048001 0.00490218 0.0772368
internal_weight=1880.14 1269.8 972.289 610.339 539.159 925.202 71.1798 56.0126 919 297.51 47.0865 26.7881 896.31 35.7552 512.371 22.6899 860.555 288.564 20.3109 28.9472 51.4627 11.8609 15.8867 39.8478 45.8231 16.1648 496.485 104.368 21.8538 809.092 257.953 24.3929 21.0133 27.1536 233.56 47.9054 9.8913 37.9562 12.7986 10.1669 17.5972 259.617 31.5048 551.139 12.7197 32.6762 14.03 13.8999 82.5143
internal_count=7664 5200 3998 2464 2176 3808 288 227 3783 1202 190 108 3691 146 2068 92 3545 1166 82 117 211 48 64 162 188 65 2004 421 88 3334 1062 100 86 111 962 197 40 153 52 41 72 1049 127 2272 52 133 57 56 333
is_linear=0
shrinkage=0.05


Tree=4
num_leaves=62
num_cat=0
split_feature=46 26 33 28 48 33 49 21 2 4 2 28 4 38 28 45 4 2 26 43 2 37 2 45 10 26 28 26 26 26 49 29 2 8 47 26 26 43 26 8 47 37 49 47 26 2 26 26 47 44 21 26 26 8 47 47 47 2 48 33 2
split_gain=1850.35 1273.01 266.245 110.662 82.4707 69.2503 53.2652 49.829 75.5071 43.4741 39.685 35.3528 32.3938 27.8385 37.6552 46.3392 24.0761 22.0322 20.7435 20.5039 20.0364 16.4126 15.3403 14.5438 14.5711 14.2448 13.5691 11.7507 12.4958 17.2909 11.3037 9.64004 9.07378 9.61246 8.78183 8.45945 12.8754 7.15163 7.42394 4.96975 5.7111 4.74299 4.14311 3.89683 3.61219 3.18527 3.12245 2.75496 2.59727 2.50582 2.47766 2.46435 6.45352 2.23484 1.78335 1.33534 1.323 0.480549 0.208376 1.48415 0.0634833
threshold=-0.90677414834499348 -1.0142436623573301 1.0000000180025095e-35 1.0000000180025095e-35 1.0000000180025095e-35 1.0000000180025095e-35 -0.30224442481994623 -0.12777725607156751 -0.42954186350107187 0.54151454567909252 -0.42954186350107187 1.0000000180025095e-35 0.21956773288547995 1.0000000180025095e-35 1.0000000180025095e-35 -0.89105536788702 2.7951422929763798 -0.96626791357994068 -0.70983141660690297 1.0000000180025095e-35 -0.42954186350107187 1.0000000180025095e-35 0.6439102590084077 -1.0000000180025095e-35 1.0000000180025095e-35 -0.83323308825492848 1.0000000180025095e-35 -0.8230200707912444 -0.62089720368385304 -0.59137821197509755 -0.092120919376611696 1.0000000180025095e-35 -0.42954186350107187 1.0000000180025095e-35 -0.078535579144954668 -0.85237988829612721 -0.86207890510559071 -0.95998947322368611 0.71248862147331249 1.0000000180025095e-35 -0.62010073661804188 1.0000000180025095e-35 0.022852318361401561 1.2195343375205996 -1.0000000180025095e-35 -1.0000000180025095e-35 1.562483072280884 -0.77867475152015675 0.096213240176439299 1.0000000180025095e-35 0.61260280013084423 -0.45987543463706965 -0.64417117834091175 1.0558010935783388 -0.35185450315475458 1.2816638350486758 0.44586247205734258 -0.42954186350107187 1.0000000180025095e-35 1.0000000180025095e-35 0.6439102590084077
decision_type=2 2 2 2 2 2 2 2 2 2 2 2 2 2 2 2 2 2 2 2 2 2 2 2 2 2 2 2 2 2 2 2 2 2 2 2 2 2 2 2 2 2 2 2 2 2 2 2 2 2 2 2 2 2 2 2 2 2 2 2 2
left_child=9 3 4 5 6 32 16 39 43 26 56 -4 13 14 -8 19 20 -17 -11 22 -3 23 46 30 25 -25 34 -27 47 -30 -19 -13 -2 48 54 36 -15 38 -32 40 -5 55 -33 -9 -12 -39 -16 -29 -34 -20 -26 52 -47 -22 -1 -28 -6 -21 59 -10 -41
right_child=1 2 11 7 10 -7 12 8 58 18 44 31 -14 35 15 17 -18 21 49 57 53 -23 -24 24 50 27 41 28 29 -31 37 42 33 -35 -36 -37 -38 45 -40 60 -42 -43 -44 -45 -46 51 -48 -49 -50 -51 -52 -53 -54 -55 -56 -57 -58 -59 -60 -61 -62
leaf_value=0.023881410124693525 -0.071676360193771729 -0.052305799003575563 -0.038844838054656106 0.026805604723193651 -0.064655069759006825 0.086088108002468341 -0.081449182945610238 -0.055936073771422679 0.035779003135024821 0.068372164266446378 0.072908950810623999 0.082273592417344041 -0.082107648220087218 -0.066645115969355143 -0.061394461189739791 -0.079280399594119755 -0.07388540560261489 0.0049651518106299712 -0.054494925249110961 0.031120480414365603 0.058452155163721681 -0.077992458197720591 0.048214533544997176 -0.056253521200645334 -0.071466572980601592 0.072454841129302686 0.08530819924899545 -0.0048998748605089135 0.07799539698631569 -0.03321721224461905 0.010238096660209394 -0.0074110096574563538 -0.020288735307939607 -0.06858359104606758 -0.015920507382089482 -0.079626579623663596 0.026106261149390617 -0.069322240633531956 -0.0550403850819738 0.029288006850016042 0.081828780560120482 0.039944999823688737 0.051220980019213214 -0.003769078387590729 0.017383053396556863 -0.054559969170380508 -0.015859603776897154 -0.055123100924871486 0.020549231175920023 -0.0089037402346875596 -0.024685419544884082 -0.057403667389501506 0.019993944340203702 0.018638970930204547 0.069724584651972663 0.041281031395069973 -0.025118184396493611 0.064013150756537615 0.081802174956179807 0.075776980489954765 0.053758936128804106
leaf_weight=4.9723404198884973 17.985541984438896 6.2606745809316662 8.4141599833965284 6.3605651706457129 7.0993396490812319 12.174434736371039 86.669566601514816 17.425118535757068 9.8297169506549853 7.4089738428592709 13.557504072785379 32.811706349253654 344.78869436681271 10.049864172935484 9.5623199343681389 54.662637501955032 8.3946079611778242 8.9778506308794004 5.4378540068864831 6.1294626444578162 11.519805535674097 26.329544886946678 5.17270204424858 6.9706671983003572 8.1946470290422422 6.6566125005483618 469.41588152945042 5.093949556350708 7.6275556832551956 5.0520432889461571 8.512686148285864 5.1759918034076673 5.8956432342529315 6.0983390361070624 4.9779930263757697 192.09192527830601 4.8975403904914847 42.560471385717392 7.2057412117719641 8.0616946816444379 198.19414401054382 8.9686877429485303 5.2123955190181732 4.8921665698289862 4.9490167051553717 4.8168509900569916 7.8400719165801993 6.2647662758827227 7.8814631998538971 7.1624698042869541 6.9802189320325843 9.1288586705923063 4.8904725313186663 7.3416133970022193 9.6639822572469711 4.9486760050058356 6.3899413496255875 8.305961608886717 17.213728114962578 6.6220965981483451 5.3755781948566428
leaf_count=20 74 26 34 26 29 49 362 72 40 30 55 133 1442 42 40 228 35 37 22 25 47 110 21 29 34 27 1915 21 31 21 35 21 24 25 20 802 20 177 30 33 809 36 21 20 20 20 32 26 32 29 29 38 20 30 39 20 26 34 70 27 22
internal_value=-7.66891e-06 -0.0312102 -0.0588049 0.054926 -0.0647551 -0.0131454 -0.0674728 0.0673785 0.0246064 0.0796373 0.0136532 0.0510043 -0.0697874 -0.0619291 -0.0528145 -0.0428577 -0.00526154 -0.051538 0.00673192 0.00859031 0.0194285 -0.0419102 -0.0208294 -0.034528 -0.0133944 0.00343825 0.0825088 0.0184989 0.00106084 0.0341295 -0.0471387 0.0691004 -0.0465773 -0.0212798 0.0383712 -0.0767052 -0.0362101 -0.0532547 -0.0208904 0.0781776 0.0802809 0.0842067 0.0234831 -0.0453671 0.0599689 -0.0609926 -0.0431285 -0.0352234 0.0025447 -0.0315071 -0.0531136 -0.0393739 -0.0181739 0.0449257 0.0569936 0.0849472 -0.0492975 0.0532915 0.0711075 0.0555848 0.0424695
internal_weight=1859.53 1336.57 1012.56 324.01 960.946 50.0354 928.95 273.975 55.9828 522.957 31.9958 51.6143 895.434 550.645 343.606 256.936 33.5167 219.926 20.0093 37.0105 25.1221 165.263 22.5751 138.933 52.8405 37.6656 502.948 30.6949 24.0383 12.6796 86.0929 43.2001 37.861 19.8754 19.6143 207.039 14.9474 77.1151 15.7184 217.992 204.555 483.333 10.3884 22.3173 18.5065 61.3967 17.4024 11.3587 13.7771 12.6003 15.1749 18.8362 9.70732 18.8614 14.6363 474.365 13.4893 14.4354 33.6655 16.4518 13.4373
internal_count=7664 5533 4210 1323 4001 204 3871 1119 229 2131 130 209 3733 2291 1427 1065 138 913 81 152 103 685 93 575 218 155 2050 126 99 52 357 175 155 81 79 864 62 320 65 890 835 1971 42 92 75 255 72 47 56 51 63 78 40 77 59 1935 55 59 137 67 55
is_linear=0
shrinkage=0.05


Tree=5
num_leaves=43
num_cat=0
split_feature=46 25 16 32 28 37 4 0 21 20 48 32 48 21 45 28 32 45 25 25 21 13 45 37 20 13 20 0 19 4 0 21 4 13 45 25 25 21 32 20 49 4
split_gain=1694.13 1757.04 149.021 148.849 116.468 50.7948 40.192 30.2262 25.2645 28.2124 22.6343 21.2188 20.3598 16.4738 15.6313 12.6617 17.9981 10.3889 10.1652 20.2799 6.75987 5.07454 10.2675 4.45678 4.09863 2.91629 5.06759 2.80444 1.87734 1.72296 1.47695 1.43834 1.1247 3.91296 0.98176 2.42707 4.30825 0.926313 0.846626 0.818916 0.728182 0.336756
threshold=-0.90677414834499348 -0.70355910062789906 1.0000000180025095e-35 -0.43038383126258845 1.0000000180025095e-35 1.0000000180025095e-35 0.54151454567909252 -1.0000000180025095e-35 -0.12777725607156751 -0.81606853008270253 1.0000000180025095e-35 0.073580510914325728 1.0000000180025095e-35 0.20128054171800616 -1.0000000180025095e-35 1.0000000180025095e-35 2.6165179014205937 -0.89105536788702 0.38823308050632482 0.3921936303377152 0.61260280013084423 -0.34419919550418848 -0.89105536788702 1.0000000180025095e-35 -1.1007686853408811 -0.44817742705345148 0.11937476322054864 1.0000000180025095e-35 0.20646530389785769 0.54151454567909252 -1.0000000180025095e-35 1.8054373264312746 -0.42432591319084162 3.5029958486557011 -0.89105536788702 0.17765162140130999 0.27438667416572576 0.53033834695816051 1.2536655664443972 0.07870331779122354 -0.21898793429136273 0.21956773288547995
decision_type=2 2 2 2 2 2 2 2 2 2 2 2 2 2 2 2 2 2 2 2 2 2 2 2 2 2 2 2 2 2 2 2 2 2 2 2 2 2 2 2 2 2
left_child=6 3 10 4 12 8 15 -8 29 24 18 28 13 14 -2 16 -1 -12 34 -20 39 22 -21 31 -10 27 -27 -16 -5 -6 -24 -17 33 -22 35 -3 -37 -19 -9 -11 -23 -34
right_child=1 2 -4 11 5 -7 7 38 9 20 17 -13 -14 -15 25 23 -18 37 19 21 32 40 30 -25 -26 26 -28 -29 -30 -31 -32 -33 41 -35 -36 36 -38 -39 -40 -41 -42 -43
leaf_value=-0.011176068106127604 -0.057999586677132502 -0.070251910183263738 0.079639449480504845 -0.083182139331571051 0.081655434192899529 -0.071374050217300186 -0.058795584730481867 0.031227744694451276 0.012462189995758365 0.0040434310536914394 0.024885579783959492 0.019203498428766036 0.073791715211422734 -0.066485376889392156 0.0089968811944099499 0.082199926523197353 0.081163529504623647 -0.021036576324912976 0.034831250988808023 0.012531159891385701 0.020115811628519702 -0.038062861963940028 -0.064691648680046787 0.038235125160973063 -0.041388956637019296 -0.033249485138138239 0.028212406739766407 0.057293153832386069 -0.037850338962648035 0.037770656829190868 -0.025736889293410444 0.038581651036852668 0.081125346136167162 0.07569079831125454 -0.077308993410572124 -0.0025915766296381406 -0.066703873592626126 -0.055802320363657634 0.07384253729519509 0.033176420321515875 -0.076378377589311264 0.042379990337581504
leaf_weight=9.7053350657224655 7.9420767724513963 99.758465483784676 15.505833148956297 17.406606405973442 267.52967831492424 5.3286610245704642 8.8239076584577578 4.994129076600073 5.1839201152324677 4.9629205614328367 7.3888280540704754 7.6519798934459677 5.4482237994670859 12.925605550408362 6.6109307408332807 463.09479586780071 9.8433019518852234 5.4111460596323004 5.139068901538848 6.1489382982254055 7.9016465842723793 5.067870005965232 18.279842749238021 8.9465465843677503 7.5910405963659269 5.11729440093041 6.4204013794660568 5.9233622848987579 6.164344608783721 5.1875478923320761 5.5198983252048448 4.9060608297586432 26.223392501473434 6.3687669038772583 662.75191341340542 5.2981702238321287 4.7290226817131042 8.506116181612013 6.1040719598531723 5.6558527648448944 40.515340656042099 4.9078648239374152
leaf_count=39 33 422 64 71 1102 22 36 20 21 20 30 31 22 54 27 1915 40 22 21 25 32 21 77 36 31 21 26 24 25 21 23 20 107 26 2821 22 20 35 25 23 171 20
internal_value=-1.51425e-05 -0.0300871 -0.0701123 0.0530148 0.0612925 0.0715873 0.076662 0.00641252 0.0740344 0.0456637 -0.0728611 -0.0507752 -0.00948811 -0.0210798 -0.00113741 0.0794522 0.0367634 -0.0204684 -0.0741381 -0.0553252 0.0607786 -0.0618996 -0.0428277 0.0811109 -0.0198555 0.0189888 7.58108e-05 0.0347366 -0.0735533 0.08098 -0.0572605 0.0818366 0.0691935 0.0485784 -0.0760221 -0.0675805 -0.0365887 -0.0449367 0.0592457 0.0215107 -0.0731344 0.0766818
internal_weight=1834.89 1318.47 890.02 428.452 397.229 346.841 516.418 19.9221 341.513 68.7954 874.515 31.2229 50.3879 44.9397 32.0141 496.496 19.5486 21.3061 853.209 80.671 56.0204 75.5319 29.9487 476.947 12.775 24.072 11.5377 12.5343 23.571 272.717 23.7997 468.001 45.4017 14.2704 772.538 109.786 10.0272 13.9173 11.0982 10.6188 45.5832 31.1313
internal_count=7664 5533 3774 1759 1632 1425 2131 81 1403 280 3710 127 207 185 131 2050 79 87 3623 338 228 317 125 1971 52 98 47 51 96 1123 100 1935 185 58 3285 464 42 57 45 43 192 127
is_linear=0
shrinkage=0.05


Tree=6
num_leaves=42
num_cat=0
split_feature=46 25 33 2 37 26 4 33 4 10 38 25 38 26 26 37 48 19 25 45 2 19 2 26 4 25 20 49 26 25 19 49 2 26 21 21 8 25 21 25 25
split_gain=1555.52 1616.3 208.391 103.356 72.6432 44.5057 48.181 39.9157 37.0952 22.5611 22.5589 20.5991 16.8664 15.0815 12.2472 10.8625 7.48116 6.26534 5.37591 4.92977 4.37741 4.15349 7.15958 4.10849 7.08959 5.53723 3.1379 3.11898 3.04552 21.1498 2.87183 2.54286 1.51786 1.454 1.20694 1.11308 1.00946 0.950574 0.732175 0.636667 0.336529
threshold=-0.90677414834499348 -0.70355910062789906 1.0000000180025095e-35 -0.96626791357994068 1.0000000180025095e-35 -0.90664806962013234 0.21956773288547995 1.0000000180025095e-35 0.54151454567909252 1.5180795788764956 1.0000000180025095e-35 0.93939849734306347 -1.0000000180025095e-35 -0.15754126012325284 -0.82934343814849842 1.0000000180025095e-35 1.0000000180025095e-35 1.0000000180025095e-35 1.9292161464691164 -0.89105536788702 -0.96626791357994068 0.20646530389785769 -0.42954186350107187 1.562483072280884 1.0000000180025095e-35 -0.14268919825553891 -1.222783029079437 0.10610879957675935 -0.93971970677375782 0.041990172117948539 0.20646530389785769 -0.11987308040261267 -0.42954186350107187 -1.0142436623573301 2.340156197547913 1.0000000180025095e-35 1.0000000180025095e-35 -0.41433079540729517 0.036751643754541881 1.6904058456420901 0.38823308050632482
decision_type=2 2 2 2 2 2 2 2 2 2 2 2 2 2 2 2 2 2 2 2 2 2 2 2 2 2 2 2 2 2 2 2 2 2 2 2 2 2 2 2 2
left_child=8 3 16 7 5 9 12 33 15 36 32 -10 14 -14 -7 20 23 -8 -13 -16 26 22 27 28 25 37 -1 -21 29 -3 31 -18 -4 -2 35 -24 -5 -25 -22 -17 -31
right_child=1 2 10 4 -6 6 17 -9 11 -11 -12 18 13 -15 19 39 30 -19 -20 21 38 -23 34 24 -26 -27 -28 -29 -30 40 -32 -33 -34 -35 -36 -37 -38 -39 -40 -41 -42
leaf_value=0.011880860842991009 -0.035101909656623208 -0.074061426604429187 0.039067137081123235 0.077944037381712183 -0.071905145493975586 -0.013559228382747575 -0.06898471120565948 0.061638826116348883 0.069874474170248169 -0.01967408667375178 -0.028271191952008896 -0.057369810673685566 0.04111398923436705 -0.06135769651104897 0.077548870114863555 0.0066414162582230755 -0.016493152944623512 -0.0044371178812086173 0.0045919121175710892 -0.019423466619681775 0.079764962602273656 0.06715697309907219 0.047313747587159886 -0.063365380083472908 -0.073227160285919676 -0.00075308257621866401 0.060756293567433978 0.029366586387293388 -0.075870996662681156 -0.0087453187361817442 -0.0040288697211253817 -0.06760914315693943 0.079946440163072952 -0.072160736615484125 0.073370816503870451 0.015579454688631573 0.057379359173776873 -0.028875753395362688 0.055767600928635835 0.033813052276178333 0.0064934448183112618
leaf_weight=4.8624949902296093 7.5574450492858913 54.160470739006996 6.6787488311529186 222.84620630741119 9.6228421777486783 5.6379450112581244 8.7650623768568021 7.5754897892475119 7.0176846086978939 5.8188967257738105 6.352134406566619 7.0397969335317594 6.8819809108972549 5.587175711989401 30.532040745019913 5.2156881988048536 5.1314648538827905 6.633827567100524 5.7100712656974792 6.0619945079088158 438.48373511433601 24.307391688227654 17.991601333022128 8.8002918064594251 30.77055136859417 8.5428302288055402 20.332578986883163 5.0782598108053207 700.53912517428398 6.3887935727834684 5.3885750770568839 6.9989175051450738 20.709833815693855 17.753363281488419 6.5478863567113867 5.3714577704668036 22.752924382686615 7.1505022495985058 14.951400041580198 4.9460133612155914 5.9311097264289856
leaf_count=20 31 233 27 932 40 23 36 31 29 24 26 29 28 23 127 21 21 27 23 25 1842 100 74 37 133 35 85 21 3044 27 22 29 86 74 27 22 94 30 62 20 24
internal_value=-1.43331e-05 -0.0290814 -0.0679169 0.0510165 0.0581896 0.0616697 0.0373105 -0.0332009 0.0740107 0.0739894 0.0526114 0.00625023 0.0485459 -0.00557676 0.0552313 0.0767225 -0.0728221 -0.0434488 -0.0309406 0.0594257 0.0778219 0.0498431 0.038119 -0.0735425 -0.0569635 -0.0342649 0.0523282 0.00299247 -0.0746548 -0.0608306 -0.0365931 -0.0492695 0.0718814 -0.0630402 0.05052 0.0411618 0.0762996 -0.0508148 0.0791091 0.0221592 -0.0010969
internal_weight=1805.43 1296.87 873.543 423.324 390.437 380.815 129.397 32.8863 508.559 251.418 33.7407 19.7676 113.998 12.4692 101.529 488.792 839.803 15.3989 12.7499 95.8906 478.63 65.3586 41.0512 822.284 55.2642 24.4936 25.1951 11.1403 767.019 66.4804 17.519 12.1304 27.3886 25.3108 29.9109 23.3631 245.599 15.9508 453.435 10.1617 12.3199
internal_count=7664 5533 3774 1759 1623 1583 533 136 2131 1050 139 81 470 51 419 2050 3635 63 52 396 2009 269 169 3563 235 102 105 46 3328 284 72 50 113 105 123 96 1026 67 1904 41 51
is_linear=0
shrinkage=0.05


Tree=7
num_leaves=47
num_cat=0
split_feature=25 25 32 33 2 37 4 4 33 38 26 21 32 25 32 8 3 11 23 25 21 37 27 3 45 32 32 26 38 25 26 26 25 4 25 25 26 4 25 13 32 25 8 25 2 25
split_gain=1153.73 1419.03 289.34 189.944 99.218 62.6952 43.6726 31.2992 28.5457 19.6486 19.2085 18.8366 18.201 22.2932 17.2768 16.5268 15.4893 17.2524 10.2163 9.03929 8.25129 7.84215 6.30302 5.98915 4.89092 6.13666 28.8398 4.74062 8.65193 7.86036 3.84395 3.65765 23.0206 3.35251 1.80933 1.31208 1.29784 1.09521 1.08556 0.879176 0.544433 0.382079 0.337849 0.333883 0.159308 0.104321
threshold=-0.70355910062789906 1.4780246019363406 0.52072721719741832 1.0000000180025095e-35 -0.96626791357994068 1.0000000180025095e-35 0.86346137523651134 0.54151454567909252 1.0000000180025095e-35 1.0000000180025095e-35 -0.71551790833473194 -0.29230615496635431 1.1544216275215151 0.81961387395858776 0.37012127041816717 1.0558010935783388 1.7152823805809023 1.0000000180025095e-35 1.0000000180025095e-35 1.0932214856147768 0.036751643754541881 1.0000000180025095e-35 1.0000000180025095e-35 0.60644251108169567 1.0000000180025095e-35 0.63844916224479686 -0.42781330645084376 1.562483072280884 -1.0000000180025095e-35 0.1901582404971123 -0.95530971884727467 -0.93086612224578846 0.041990172117948539 -0.42432591319084162 -0.060257699340581887 -0.40367834270000452 -1.0142436623573301 -0.42432591319084162 1.9855616092681887 -0.13624269142746923 0.14920179545879367 -0.27403230965137476 1.0000000180025095e-35 0.38823308050632482 -0.42954186350107187 -0.25825591385364527
decision_type=2 2 2 2 2 2 2 2 2 2 2 2 2 2 2 2 2 2 2 2 2 2 2 2 2 2 2 2 2 2 2 2 2 2 2 2 2 2 2 2 2 2 2 2 2 2
left_child=4 2 3 18 8 6 11 21 14 19 -8 15 13 -4 36 24 17 22 27 34 -20 39 23 30 25 26 -6 31 29 35 -13 32 -2 -19 -5 -29 -1 -7 -9 -3 -33 -42 -41 -34 -18 -37
right_child=1 7 12 9 5 37 10 38 -10 -11 -12 16 -14 -15 -16 -17 44 33 20 -21 -22 -23 -24 -25 -26 -27 -28 28 -30 -31 -32 40 43 -35 -36 45 -38 -39 -40 42 41 -43 -44 -45 -46 -47
leaf_value=-0.03365532558929784 -0.072249841383472402 0.076986489355364784 -0.06119150892475779 0.030193884966121354 0.061976987272951325 -0.069167106963466382 0.044161567475690583 -0.030026559657243199 0.056164141984485064 -0.026073444243512902 -0.066401008728404334 0.033956262247393044 0.075796431981766721 0.068954207278237534 0.036824630463460468 -0.0035163369761678034 0.040031515947828694 -0.053423964312778363 0.017252174100516889 0 -0.053539056115535624 0.013174913960033428 0.076797018991902583 0.056177817543824476 0.075891699400181367 0.077680699721854096 -0.04008879746481965 -0.057651122459635711 -0.07101760129459779 0.022557024620636898 -0.017946397523985063 -0.073868183163796744 -0.008325542745229543 -0.0012520528999887808 0.077039826069243464 -0.012671207750029981 -0.069200290531555811 -0.02653700985016872 0.00069244533837842042 0.064837580556341909 -0.059388290479726963 -0.026285727716003206 0.036582372692807112 0.0059416160406125813 0.073238546846935565 -0.031902864216572104
leaf_weight=7.5317993164062527 57.560957223176956 225.27659909427166 5.6967285275459272 4.6891119331121471 45.125679016113281 5.4524504989385605 5.9064324647188178 4.8507000207900983 8.4546755552291852 8.0247588157653791 8.1914309412240964 4.8798506259918222 37.373270869255066 5.4644954353570938 4.8117945939302436 6.9716572016477576 5.3961529433727291 5.3156981319189072 5.8646643608808509 5.5516123175621024 9.8570725470781309 5.9223965257406226 8.4433415681123751 7.9655510187149039 355.29790821671486 32.929831132292747 7.3713858127593985 9.1339989751577413 31.40111455321312 5.0665585100650778 8.0259809046983719 669.85141418874264 7.0727561563253385 6.5013272613286954 21.402057960629467 4.677639618515971 17.01097755134106 5.2711937725543958 4.9675131142139435 30.196473151445389 6.960819885134697 4.7935913950204831 6.9126155674457541 7.1481900066137314 25.828047975897789 4.7257336378097508
leaf_count=31 253 966 25 19 189 23 24 20 35 33 34 20 157 23 20 29 22 22 24 23 41 24 35 33 1514 141 30 39 137 21 33 2976 30 27 90 20 72 22 20 129 31 21 29 29 108 20
internal_value=-1.42981e-05 -0.0282308 -0.0583669 -0.0650533 0.057574 0.0630062 0.0654324 0.0704594 -0.0201878 0.0409027 -0.0198916 0.0677888 0.059444 0.00254672 -0.0434692 0.0716985 0.042882 0.0217118 -0.0702028 0.0583197 -0.0273804 0.0736651 0.0419453 0.024751 0.0729048 0.05969 0.0470705 -0.0709946 -0.0537997 -0.0287354 0.00234966 -0.0721704 -0.0583911 -0.027448 0.0702305 -0.0434473 -0.0602325 -0.0526898 -0.0153948 0.0749563 -0.0735265 -0.0494 0.0608035 -0.000906426 0.0690753 -0.0249544
internal_weight=1773.13 1190.44 912.317 863.782 582.683 544.874 534.15 278.126 37.8092 39.6675 14.0979 520.052 48.5345 11.1612 29.3546 447.696 72.356 41.1317 824.115 31.6428 15.7217 268.308 29.3147 20.8714 440.725 85.4269 52.4971 808.393 55.005 23.6039 12.9058 753.388 71.7819 11.817 26.0912 18.5374 24.5428 10.7236 9.81821 262.386 681.606 11.7544 37.1091 14.2209 31.2242 9.40337
internal_count=7664 5200 4012 3807 2464 2306 2261 1188 158 165 58 2203 205 48 123 1903 300 170 3642 132 65 1148 121 86 1874 360 219 3577 237 100 53 3340 312 49 109 79 103 45 40 1124 3028 52 158 59 130 40
is_linear=0
shrinkage=0.05


Tree=8
num_leaves=50
num_cat=0
split_feature=46 25 33 2 26 4 33 4 0 10 0 2 4 2 48 2 3 19 3 0 45 31 13 8 26 4 25 13 45 13 13 21 26 25 13 13 47 47 3 2 13 26 4 25 25 25 26 47 3
split_gain=1323.41 1373.88 179.41 87.1513 45.3258 37.0295 34.0316 32.3874 25.7862 24.3238 17.5112 11.1549 10.0555 7.59423 6.9851 6.78664 6.57251 5.39191 6.69182 8.11109 8.69935 5.37075 4.04112 4.49919 3.84782 6.80244 5.36845 3.54025 6.66262 7.9687 3.5162 3.01568 2.97276 18.721 2.84777 2.35066 2.21069 2.12225 2.07953 1.79876 1.76023 1.33883 0.990216 0.352681 0.292133 0.283687 0.270254 0.256355 0.171003
threshold=-0.90677414834499348 -0.70355910062789906 1.0000000180025095e-35 -0.96626791357994068 -1.0142436623573301 0.86346137523651134 1.0000000180025095e-35 0.54151454567909252 -1.0000000180025095e-35 2.2617258429527287 -0.70175373554229725 -0.42954186350107187 -1.0000000180025095e-35 -1.5029940009117124 1.0000000180025095e-35 -0.42954186350107187 -0.68220922350883473 0.82252216339111339 -0.89198973774909962 0.78328223526477825 -0.89105536788702 1.0000000180025095e-35 -0.44817742705345148 1.0000000180025095e-35 1.562483072280884 0.21956773288547995 0.1901582404971123 0.48762676119804388 -0.89105536788702 -0.44817742705345148 1.3194527029991152 -0.045512809418141835 -0.93971970677375782 0.041990172117948539 0.48762676119804388 -0.44817742705345148 0.19346679747104648 0.077242866158485426 0.24681876599788669 -0.42954186350107187 0.17569204047322276 -1.0142436623573301 0.21956773288547995 1.2499863505363467 -0.41433079540729517 0.38823308050632482 -0.40566629171371454 0.2333624213933945 1.2957213521003725
decision_type=2 2 2 2 2 2 2 2 2 2 2 2 2 2 2 2 2 2 2 2 2 2 2 2 2 2 2 2 2 2 2 2 2 2 2 2 2 2 2 2 2 2 2 2 2 2 2 2 2
left_child=7 3 14 6 9 10 41 13 -9 22 16 17 15 -1 24 -4 -6 18 -12 20 -20 27 -5 39 32 26 40 28 -13 37 -25 42 33 -3 46 -22 -31 -30 -33 -24 44 -2 -15 -10 -26 -35 -16 -7 -40
right_child=1 2 12 4 5 47 -8 8 43 -11 11 21 -14 31 34 -17 -18 -19 19 -21 35 -23 23 30 25 -27 -28 -29 29 36 -32 38 -34 45 -36 -37 -38 -39 48 -41 -42 -43 -44 -45 -46 -47 -48 -49 -50
leaf_value=0.0041507860809695757 -0.032280703552302302 -0.069947857397672675 0.019366366363884988 0.074899017580547442 0.018801684165503575 -0.068911266708518076 0.057339900393420289 -0.055047350021204193 0.067334005651620718 -0.036921805997957739 0.047230771750680169 0.070958977258455222 -0.010048840031972579 0.074080155194655523 -0.024967046499032603 0.076988909452772758 -0.047811848738440813 0.059000174511599002 0.029708021484816313 0.043752222501688386 -0.014004086830480367 0.003181620456075607 0.037698757878265793 0 -0.066703011198763137 -0.071823411592898012 0.0070283542266424198 0.072300842992856107 0.032459662414975457 -0.017399708838841729 0.052424345485726886 0.013526938048201383 -0.071885302642063678 -0.0080364566793169907 -0.0016820463534822317 -0.063520292209274506 0.022336928491533167 0.073704164279440598 0.068278277622012606 0.068233699503315592 -0.015232171707006423 -0.067603268222996768 0.043352367836285738 0.031113129370628063 -0.03696783318230315 0.0059560835298803055 -0.05528008719212682 -0.032728261259500888 0.034849900284668937
leaf_weight=4.3563843816518775 7.503214597702029 51.862357512116432 8.3234076052904147 162.6782501488924 6.3822264522314072 5.2062731981277448 7.446458473801612 8.635380759835245 5.8413892388343793 4.8121109306812277 7.5598278492689159 18.04672481119632 5.5906383246183387 441.2975181043148 4.7607421278953561 19.093517288565636 6.5001489967107755 6.17769831418991 4.7476180791854921 5.3124472349882117 5.0331751257181221 5.1560770124196997 11.227739378809927 6.7151911258697492 6.8310365080833462 26.323353499174118 5.9022185057401648 30.972177654504776 11.924025535583498 7.2792724967002957 5.2099326103925705 4.991893723607066 668.36097222566605 6.3633253872394544 5.3251921385526648 6.4500422328710485 5.0553941130638123 6.7164621651172629 6.2936454713344556 45.302187487483025 5.4783279895782462 17.226296231150627 8.3196338862180692 4.9870322048664093 9.1134828776121157 5.9369808882474899 7.1961326003074655 5.0976904630661011 5.7693621814250946
leaf_count=18 31 233 34 707 27 22 31 36 25 20 32 77 23 1924 20 82 27 26 20 22 21 21 47 28 30 119 24 132 50 30 22 21 3044 27 22 27 21 28 27 195 23 74 36 20 39 24 30 21 24
internal_value=-1.29907e-05 -0.0273622 -0.0641436 0.0473228 0.0540234 0.0314771 -0.0308153 0.0694888 0.00569451 0.0675352 0.0386363 0.0445453 0.0488512 0.0720967 -0.0688468 0.0609685 -0.0154727 0.0199 0.00974993 -0.00469248 -0.0224579 0.0543491 0.0698812 0.056978 -0.0695674 -0.0534115 -0.0335884 0.0575054 0.0467992 0.0307879 0.0253047 0.07271 -0.0706694 -0.0570183 -0.0337791 -0.045078 -0.000284823 0.0505713 0.0456918 0.0630166 -0.0448162 -0.0587515 0.0736201 0.0551158 -0.0531869 -0.00096673 -0.046455 -0.0559316 0.056565
internal_weight=1738.69 1248.2 836.462 411.739 379.563 143.617 32.176 490.492 19.4638 235.945 133.313 120.431 33.0076 471.028 803.454 27.4169 12.8824 35.2808 29.1031 21.5433 16.2308 85.1501 231.133 68.4551 786.172 53.6484 27.3251 79.9941 49.0219 30.9752 11.9251 466.672 732.524 64.1627 17.2821 11.4832 12.3347 18.6405 17.0549 56.5299 21.4228 24.7295 449.617 10.8284 15.9445 12.3003 11.9569 10.304 12.063
internal_count=7664 5533 3774 1759 1623 604 136 2131 81 1019 561 507 139 2050 3635 116 54 148 122 90 68 359 999 292 3563 235 116 338 206 129 50 2032 3328 284 72 48 51 78 72 242 92 105 1960 45 69 51 50 43 51
is_linear=0
shrinkage=0.05


Tree=9
num_leaves=61
num_cat=0
split_feature=46 26 32 28 28 26 13 13 39 37 21 2 37 2 0 29 23 26 21 8 10 2 32 30 2 28 32 21 3 13 13 2 3 10 8 30 13 18 2 13 0 13 21 26 32 13 3 26 13 13 3 21 2 47 0 21 3 47 3 21
split_gain=1222 849.856 108.604 81.8809 67.2688 65.5523 67.193 55.5898 34.8357 34.2091 30.2638 30.0563 24.2839 22.0647 21.808 20.5691 16.7512 16.6295 14.7089 14.4762 14.4022 14.7095 14.4092 13.666 11.0222 10.9036 15.0865 10.871 10.4062 9.44009 7.78723 6.77318 6.38554 7.05326 6.03915 6.03376 14.0467 5.45583 4.70718 4.68814 3.91067 4.49923 6.11894 3.81635 3.73365 3.52122 2.06219 2.03408 1.99571 1.5795 1.54832 1.29855 10.8671 0.909387 0.684512 0.656146 0.380237 0.262305 0.121343 0.0615703
threshold=-0.90677414834499348 -1.0142436623573301 -0.43473295867443079 1.0000000180025095e-35 1.0000000180025095e-35 1.562483072280884 1.4234309792518618 -0.44817742705345148 1.0000000180025095e-35 1.0000000180025095e-35 -0.045512809418141835 -0.96626791357994068 1.0000000180025095e-35 -0.42954186350107187 0.78328223526477825 1.0000000180025095e-35 1.0000000180025095e-35 -0.38012988865375513 -0.045512809418141835 3.7473402023315434 1.5180795788764956 -0.42954186350107187 -0.43038383126258845 1.0000000180025095e-35 1.7173623442649844 1.0000000180025095e-35 2.6165179014205937 -0.12777725607156751 -1.0000000180025095e-35 1.1114962697029116 1.0000000180025095e-35 -0.42954186350107187 2.2247493267059331 1.0000000180025095e-35 1.0000000180025095e-35 1.0000000180025095e-35 -0.13624269142746923 1.0000000180025095e-35 -0.42954186350107187 1.3194527029991152 0.78328223526477825 -0.24022094160318372 -0.16890948265790937 -0.57334330677986134 0.63844916224479686 0.38364852964878088 -0.50239735841751088 -0.93086612224578846 0.071713796816766276 -1.0000000180025095e-35 -0.052867688238620751 -0.086645033210515962 -0.42954186350107187 0.19346679747104648 0.78328223526477825 1.8054373264312746 0.12694418430328372 -1.5038107037544248 -0.92195838689804066 2.7514785528182988
decision_type=2 2 2 2 2 2 2 2 2 2 2 2 2 2 2 2 2 2 2 2 2 2 2 2 2 2 2 2 2 2 2 2 2 2 2 2 2 2 2 2 2 2 2 2 2 2 2 2 2 2 2 2 2 2 2 2 2 2 2 2
left_child=12 3 4 8 54 6 7 14 31 11 49 27 25 59 15 18 39 -14 23 24 22 -22 51 28 29 26 -1 -5 37 40 -21 -2 33 -15 48 55 56 43 -39 44 41 42 46 -6 -4 -42 -9 -43 -33 58 -10 -13 -53 -45 -3 -27 -37 -23 -7 -8
right_child=1 2 16 9 5 10 13 19 50 -11 -12 20 17 32 -16 -17 -18 -19 -20 30 21 57 -24 -25 -26 35 -28 -29 -30 -31 -32 34 -34 -35 -36 36 -38 38 -40 -41 45 47 -44 53 -46 -47 -48 -49 -50 -51 -52 52 -54 -55 -56 -57 -58 -59 -60 -61
leaf_value=-0.014844436281445147 -0.063943754960489985 -0.070293783728362133 -0.070788647484673992 0.030718497866281575 0.060752528268872175 0.040950286553734588 -0.018698492767799769 0.012425101555795976 0.062385426939919934 -0.048590980486593736 -0.039920292748891931 0.07263450028454102 0.052374918232282477 0.054531148578125521 0.063021388107321052 -0.056805071740096573 0.01617153626925381 -0.052508349463870757 -0.056286662754082555 0.045829636202329507 -0.041467850508145859 0.06040377932191552 -0.0011743083524187977 -0.055987812533437355 0.0146665983303621 0.073496721780047125 0.071244358645247738 -0.058323132058638344 -0.034225795038724353 0.0044580605206991043 -0.033573528525990631 -0.014336390751357809 0.070909892907621896 -0.017703801574235394 -0.059981038363372874 0.066965553566295535 -0.0039693284986787114 -0.029205870639134685 0.027577234573015946 -0.026266502522049581 -0.047312878291106725 -0.034695656221635278 -0.058000850537665974 0.0020373047199227271 -0.020377336268543145 0.0040497749532420824 -0.027092381019729623 -0.066938673490417586 0.022554777286367518 0.030157850092021016 0.01959179869780887 -0.00087659281363084134 0.07214072121781262 0.030588708602027115 -0.03960088785553393 0.036610033451723936 0.032930749614667847 0.029415776523456685 0.074227272536577987 -0.042158081577105183
leaf_weight=9.3555848449468613 15.773265123367308 100.24653051793575 419.61227004230022 5.7011591941118223 14.017461746931071 5.6916158050298717 4.4634021371602994 4.9775006622076035 9.2444317489862424 6.6143103986978522 8.8816669881343824 184.55958992242813 6.6161009520292282 6.0013649165630358 9.3151105642318708 19.93805992603302 5.3389108031988135 6.5012175738811475 8.5286671817302686 4.8809840828180295 5.6961006671190288 6.5567709803581247 7.0634323805570594 5.6272868514060965 4.9491571336984626 395.46333536505699 9.2888444811105728 6.0611893385648727 6.3974799960851731 5.6796746402978888 5.4841829240322113 7.8296487033367175 17.279748365283012 5.6734535992145538 4.8634308874607077 34.724761441349983 9.0454912036657316 5.3644779026508331 7.5193338245153409 8.0951839387416822 7.7945235818624479 9.2777434289455396 17.513167694211006 5.2315737903118116 4.9702459573745719 4.8688842058181763 6.3603810369968432 139.47287145256996 5.2526192218065262 6.3731667250394848 4.7351415008306494 6.7452655136585262 18.013171583414078 6.7142652571201324 7.1024217009544364 4.7484870851039878 4.5656491369009009 5.7008808553218815 17.384548902511597 4.5716746598482132
leaf_count=38 69 460 1946 24 61 24 20 22 39 29 39 823 27 26 40 91 22 27 39 21 25 29 30 26 22 1765 40 27 29 25 25 33 75 25 21 155 39 24 33 36 35 42 80 23 22 21 29 645 22 28 20 29 78 29 31 20 20 25 74 20
internal_value=-5.13393e-06 -0.0265681 -0.0503664 0.0463487 -0.0338959 -0.0237983 -0.0308468 -0.0387882 -0.0134159 0.0576572 0.0374142 0.0607182 0.067481 0.031106 -0.00540759 -0.0141885 -0.0684202 1.14121e-06 0.000736823 -0.0526811 0.0646282 0.0198323 0.0682137 0.011294 -0.0556425 0.0693609 0.0292347 -0.015748 0.0208 -0.0575092 0.00412017 -0.04075 0.0520743 0.0204064 -0.0178011 0.070949 0.0513974 0.0306189 0.00317345 -0.0695104 -0.0593987 -0.0614136 -0.0401634 0.0434299 -0.0702595 -0.0283477 -0.00973742 -0.0652061 0.000670428 0.0614469 0.0504998 0.0705734 0.0527918 0.0195943 -0.0686935 0.0731639 0.0640502 0.0496746 0.0682691 -0.0340853
internal_weight=1702.32 1222.01 921.599 300.41 483.582 376.233 337.902 299.913 47.6985 252.712 38.331 246.098 480.309 37.9896 88.6537 79.3386 438.017 13.1173 59.4005 211.259 234.335 17.9538 216.381 50.8719 200.894 467.192 18.6444 11.7623 45.2446 195.945 10.3652 33.719 28.9546 11.6748 17.9457 448.548 48.3359 38.8471 12.8838 432.678 190.265 177.602 28.851 25.9633 424.583 12.6634 11.3379 148.751 13.0823 29.4493 13.9796 209.318 24.7584 11.9458 107.349 400.212 39.2904 12.2577 23.0762 9.03508
internal_count=7664 5533 4210 1323 2184 1693 1528 1362 204 1119 165 1090 2131 166 395 355 2026 54 264 967 1039 79 960 225 921 2077 78 51 199 899 46 145 126 51 76 1999 214 170 57 2004 874 818 131 113 1968 56 51 687 55 126 59 930 107 52 491 1785 175 54 98 40
is_linear=0
shrinkage=0.05


Tree=10
num_leaves=39
num_cat=0
split_feature=46 25 33 28 33 37 4 4 38 25 28 25 31 10 3 48 20 45 45 3 25 21 21 37 25 25 5 3 1 3 25 25 47 4 4 10 45 47
split_gain=1129.7 1195.38 159.84 109.906 37.8058 37.1352 29.9426 21.8623 17.5191 16.1228 12.5123 15.3262 10.2781 7.70244 16.5021 6.54479 5.74035 5.58238 12.1424 16.211 4.40567 3.90337 9.84138 3.42064 2.82839 8.8836 2.49708 2.12496 3.30012 2.10763 1.93318 1.86591 1.71152 1.19969 0.455648 0.234539 0.233411 0.195621
threshold=-0.90677414834499348 -0.70355910062789906 1.0000000180025095e-35 1.0000000180025095e-35 1.0000000180025095e-35 1.0000000180025095e-35 0.54151454567909252 0.86346137523651134 -1.0000000180025095e-35 0.93939849734306347 1.0000000180025095e-35 -0.42778077721595759 1.0000000180025095e-35 1.5180795788764956 2.4644985198974614 1.0000000180025095e-35 0.56676071882247936 -1.0000000180025095e-35 -0.89105536788702 -0.052867688238620751 1.9292161464691164 -0.12777725607156751 0.73599946498870861 1.0000000180025095e-35 0.041990172117948539 0.062261261045932777 1.0000000180025095e-35 -0.83205246925353993 1.0000000180025095e-35 0.66637980937957775 -0.12789230048656461 -0.40801332890987391 1.2816638350486758 -1.0000000180025095e-35 -0.42432591319084162 1.0000000180025095e-35 -0.89105536788702 0.43186508119106298
decision_type=2 2 2 2 2 2 2 2 2 2 2 2 2 2 2 2 2 2 2 2 2 2 2 2 2 2 2 2 2 2 2 2 2 2 2 2 2 2
left_child=6 3 15 4 16 7 10 12 30 -8 11 -1 13 17 -15 24 35 18 -5 27 -11 -19 -23 32 36 -26 33 -20 -29 -21 -4 -17 -12 -27 -6 -2 -3 -18
right_child=1 2 8 5 34 -7 9 -9 -10 20 23 -13 -14 14 -16 31 37 21 19 29 -22 22 -24 -25 25 26 -28 28 -30 -31 -32 -33 -34 -35 -36 -37 -38 -39
leaf_value=0.069282944921071385 -0.043336422998472367 -0.060372547474544735 0.024331684928308828 0.073681186837204857 0.05056202089323502 -0.058916637129355992 0.062143755328833164 -0.01578415190524745 -0.024843127107300741 -0.053205500490234182 0.071061885826294233 -0.017118584395951795 0.0079801640065065953 -0.044064985210536811 0.061129398317616268 -0.011772082075937678 -0.014970655114310633 0.070104196344369901 -0.028208186838972322 0.030637163366839606 0.0033131989972251304 -0.014524195908628757 0.060292220338374072 0.032243690404233402 -0.0066840142297531491 -0.054189949407777042 -0.028165925394812774 0.032612644991818589 -0.011760260717618298 0.070047711569037482 0.0709076042794929 -0.047015757588089728 0.028684419642547993 -0.069493534144451849 0.025051093303237355 -0.065509808341414039 -0.069430107609923949 -0.00010247720502777952
leaf_weight=9.1071307510137576 18.088189542293552 82.773460999131203 4.398719564080241 30.309838593006134 9.6751736402511614 6.1331384629011145 6.6020951271057156 9.2871740162372571 6.2387555390596381 6.8381271064281446 418.36016683280468 9.6479528099298459 9.7264987826347333 5.0142171233892432 8.9773149341344816 8.3551505804061907 4.5779257416725141 204.06786097586155 4.7644707858562496 8.1461663544178027 5.6782888770103455 5.1045024245977428 18.556626006960869 8.7901191860437375 8.3988311886787397 58.26765538752079 8.3041079044342023 6.2357094734907124 8.8957553952932358 15.319064512848852 21.594192370772362 8.6841242313384992 4.6248276531696311 70.111511930823326 7.8706719279289237 13.214176833629606 521.03754991292953 4.8534718602895737
leaf_count=40 77 389 18 133 41 27 29 39 26 29 1915 39 40 21 39 35 20 925 20 34 23 21 81 36 39 270 37 26 37 67 95 37 20 333 33 58 2495 20
internal_value=-5.23047e-06 -0.0257948 -0.0610925 0.0448108 -0.0183117 0.0556502 0.0656286 0.0579357 0.0467514 0.00385306 0.0682247 0.0259667 0.0600989 0.0616601 0.0226722 -0.0656923 -0.044508 0.0633725 0.0494471 0.0311155 -0.0288468 0.0676196 0.0440146 0.0699845 -0.0664176 -0.0581412 -0.0611952 -0.00205812 0.00710406 0.0583819 0.0644043 -0.0316219 0.0706791 -0.0630589 0.0413558 -0.0545899 -0.0682986 -0.008542
internal_weight=1666.63 1196.98 798.164 398.818 58.2796 340.538 469.649 334.405 32.2317 19.1185 450.53 18.7551 325.118 315.392 13.9915 765.932 40.7338 301.4 73.671 43.3612 12.5164 227.729 23.6611 431.775 748.893 145.082 136.683 19.8959 15.1315 23.4652 25.9929 17.0393 422.985 128.379 17.5458 31.3024 603.811 9.4314
internal_count=7664 5533 3774 1759 249 1510 2131 1483 139 81 2050 79 1444 1404 60 3635 175 1344 317 184 52 1027 102 1971 3563 679 640 83 63 101 113 72 1935 603 74 135 2884 40
is_linear=0
shrinkage=0.05


Tree=11
num_leaves=44
num_cat=0
split_feature=46 25 32 37 49 21 49 20 37 32 25 25 26 26 26 0 49 27 8 0 44 26 0 20 11 48 26 25 13 26 13 26 13 19 49 11 10 27 26 45 49 8 20
split_gain=1046.48 1108.17 108.548 63.7937 63.6397 41.3235 27.4746 25.6702 22.0182 16.9116 15.7393 18.5577 15.3549 14.9167 14.129 11.9092 11.6544 12.3556 12.5419 7.17201 18.8058 6.18642 8.46615 5.19295 5.099 4.2302 3.41602 3.96987 3.52743 3.17022 2.35033 2.34979 2.22666 2.08055 1.90127 1.48703 1.43562 0.749758 1.67329 0.635521 2.74398 0.114154 0.0471109
threshold=-0.90677414834499348 -0.70355910062789906 -0.43038383126258845 1.0000000180025095e-35 0.2250466272234917 -0.29230615496635431 -0.50443872809410084 -0.81606853008270253 1.0000000180025095e-35 0.073580510914325728 0.38823308050632482 0.3921936303377152 -0.10911343619227408 -0.38012988865375513 0.51338130235672008 0.78328223526477825 -0.24674009531736371 1.0000000180025095e-35 1.9529808759689333 -0.70175373554229725 1.0000000180025095e-35 1.562483072280884 -0.70175373554229725 -1.1821115612983701 1.0000000180025095e-35 1.0000000180025095e-35 1.562483072280884 0.17765162140130999 1.007517993450165 1.4460158944129946 0.17569204047322276 -0.85237988829612721 0.27967028319835668 0.20646530389785769 -1.0000000180025095e-35 1.0000000180025095e-35 3.7490184307098393 1.0000000180025095e-35 1.3965346217155459 1.0000000180025095e-35 0.11403798684477807 1.0558010935783388 -1.0194258093833921
decision_type=2 2 2 2 2 2 2 2 2 2 2 2 2 2 2 2 2 2 2 2 2 2 2 2 2 2 2 2 2 2 2 2 2 2 2 2 2 2 2 2 2 2 2
left_child=8 2 3 5 6 12 -3 23 19 33 25 -12 39 -10 -14 21 36 18 24 20 -1 31 -23 -7 30 26 -8 28 -28 -16 -18 -13 -27 -4 -22 41 -9 38 -33 40 -2 -21 -25
right_child=1 4 9 -5 -6 7 10 16 13 -11 11 15 14 -15 29 -17 17 -19 -20 35 34 22 -24 42 -26 32 27 -29 -30 -31 -32 37 -34 -35 -36 -37 -38 -39 -40 -41 -42 -43 -44
leaf_value=-0.047133633401590297 0.060693214942947986 0.030243164142407814 -0.077620750578649964 -0.070119254740670461 0.065316930100663279 0.012322894035615269 -0.066390095676350069 0.067580620435913563 0.049309944584161262 0.016536464985982931 0.04203328592274122 -0.018282648241969689 -0.030208159228486204 -0.050471141358030637 0.016353948379172169 0.025067724833575722 -0.013988067293627433 0.067621722793124936 0.057455485356988967 0.068728979299339896 0.018350788283237846 -0.054216803313282762 0.029441220397095975 -0.055989335803861312 -0.045396364897046265 -0.04658319996833666 -0.059859251550849792 -0.007614863333743377 -0.010440676557828887 0.058700631253550711 0.02450027523929289 -0.068038099921216108 -0.0043615749348942237 -0.032370503080444001 0.059944833672014732 0.035634266583469222 0.025974506169581149 -0.03242075040569492 -0.024579160401733746 0.069972871535692566 0.014206024929242734 0.040896172658186652 -0.029688478579856577
leaf_weight=4.3167167305946341 21.398223847150806 7.5017489641904822 16.546307489275939 9.7152045965194684 9.2540857940912229 4.6774978637695339 623.81210733950138 22.558144077658657 6.547122910618782 7.4098882228136054 5.6110229939222327 4.7679654359817496 6.8717300742864635 6.4356950074434263 7.6534764766693142 4.7363406866788855 8.4120687395334297 8.5620636492967588 6.6588791757822028 392.63033066689968 4.6401092559099189 5.1595972180366516 4.9664059281349164 6.0024108886718759 8.1512789130210859 10.239353671669958 34.436454936861992 5.8210797011852256 4.8300403207540503 17.096220090985298 5.8223986476659766 41.202003017067909 5.014482542872428 5.9980279207229605 29.815426781773567 7.5564421713352194 4.6402912735939017 5.875620409846305 4.3092446476221076 212.16559745371342 4.8960419893264762 6.4099659770727149 6.498776197433469
leaf_count=19 93 34 71 43 43 20 3067 100 27 31 24 20 29 27 33 20 36 37 29 1836 21 24 21 26 35 44 161 26 22 77 25 199 21 25 139 33 20 28 20 980 21 29 28
internal_value=-4.02913e-06 -0.0251098 0.0433875 0.050979 -0.0596376 0.054524 -0.0612321 0.022963 0.0639461 -0.0468245 -0.0621792 -0.039571 0.063966 0 0.0296121 -0.046582 0.0373115 0.0183053 0.00183407 0.065813 0.0427466 -0.0520728 -0.0137781 -0.029965 -0.0162467 -0.0646427 -0.0652789 -0.0486901 -0.0543149 0.0469434 0.00200164 -0.0585289 -0.0341333 -0.0676803 0.05516 0.06789 0.0618324 -0.0617474 -0.0646476 0.068358 0.053058 0.0683977 -0.0458987
internal_weight=1627.62 1169.27 391.735 361.78 777.538 352.065 768.283 81.9838 458.352 29.9542 760.782 76.6282 270.081 12.9828 31.6214 71.0172 64.8051 37.6067 29.0446 445.369 38.7723 66.2808 10.126 17.1787 22.3857 684.154 668.9 45.0876 39.2665 24.7497 14.2345 56.1548 15.2538 22.5443 34.4555 406.597 27.1984 51.3869 45.5112 238.46 26.2943 399.04 12.5012
internal_count=7664 5533 1759 1632 3774 1589 3731 356 2131 127 3697 356 1233 54 139 332 282 162 125 2077 179 312 45 74 96 3341 3276 209 183 110 61 267 65 96 160 1898 120 247 219 1094 114 1865 54
is_linear=0
shrinkage=0.05


Tree=12
num_leaves=42
num_cat=0
split_feature=46 25 33 32 28 37 4 33 0 32 38 10 28 32 13 8 11 48 10 4 19 13 37 25 25 13 32 19 3 0 19 47 25 13 13 32 32 45 13 38 4
split_gain=969.84 1028.12 143.345 100.401 82.5632 32.4393 28.2258 23.6637 21.2624 15.6713 15.3785 13.9119 12.5722 14.439 8.36758 10.6624 14.3244 6.2561 6.13272 5.9992 5.87857 5.10838 3.1117 2.89816 8.84972 4.17356 8.48448 2.74686 2.24722 2.23381 1.95976 1.73921 1.55657 1.21486 1.62863 0.789554 0.684662 0.465547 6.34948 0.419099 0.397071
threshold=-0.90677414834499348 -0.70355910062789906 1.0000000180025095e-35 -0.43038383126258845 1.0000000180025095e-35 1.0000000180025095e-35 0.54151454567909252 1.0000000180025095e-35 1.0000000180025095e-35 0.073580510914325728 -1.0000000180025095e-35 1.0000000180025095e-35 1.0000000180025095e-35 2.6165179014205937 1.9433222413063052 1.9529808759689333 1.0000000180025095e-35 1.0000000180025095e-35 1.0000000180025095e-35 0.54151454567909252 0.083253924734890475 -0.24022094160318372 1.0000000180025095e-35 0.041990172117948539 0.062261261045932777 -0.44817742705345148 -0.42523200809955591 0.20646530389785769 0.93609759211540233 -0.70175373554229725 0.20646530389785769 1.2816638350486758 -0.12789230048656461 0.59160500764846813 -0.13624269142746923 1.0000000180025095e-35 -0.086116418242454515 -0.89105536788702 1.007517993450165 -1.0000000180025095e-35 0.21956773288547995
decision_type=2 2 2 2 2 2 2 2 2 2 2 2 2 2 2 2 2 2 2 2 2 2 2 2 2 2 2 2 2 2 2 2 2 2 2 2 2 2 2 2 2
left_child=6 3 17 4 7 11 12 18 -8 30 32 19 13 -1 15 16 33 23 20 -6 -2 -9 31 37 -25 26 29 28 -19 -26 -5 40 -4 34 -13 -10 -27 38 -3 -31 -14
right_child=1 2 10 9 5 -7 8 21 35 -11 -12 14 22 -15 -16 -17 -18 27 -20 -21 -22 -23 -24 24 25 36 -28 -29 -30 39 -32 -33 -34 -35 -36 -37 -38 -39 -40 -41 -42
leaf_value=-0.018900481807081801 -0.042430452821947323 -0.061786357855817348 0.024568218787547794 -0.075142192017969955 0.067691988897759944 -0.060511263283971509 -0.053291603644060818 0.055626538056791963 0.023237952608970394 0.01581798453825391 -0.022347128398551623 0.032177320802117895 0.068282942119768181 0.065793513491592209 0.066097632971708703 0.063209753005209687 -0.044022854361230337 -0.059831848426918681 -0.06082969562382378 0.015141234205512506 0.012709116240526567 -2.5159951500923896e-05 0.030601941748406893 -0.0035499943237333634 -0.044586197487338872 -0.067063066917592479 -0.062952715703908438 2.6878263922851787e-05 -0.012017058834673508 -0.0012559768460758628 -0.031116588091321354 0.025940918763598487 0.068192912062817509 0.04860499149011719 0 0.061845413409200259 -0.030643902394742607 -0.066649615287226724 -0.010752772288041883 -0.018342002530838616 0.041458722249601655
leaf_weight=9.6079986691474915 8.6767541021108681 71.309604778885841 4.3653363138437333 16.277153417468078 237.9970824867487 4.7904719710350028 8.4492181688547152 10.248247668147089 4.6941995471715909 7.4046897590160361 6.1426640301942816 8.4234238117933273 388.96439464390278 8.7084005028009415 17.435481801629066 11.205171748995779 8.5511243194341642 6.550139933824541 13.74278987944126 6.4870988279581061 8.7574800997972471 6.2262361049652091 8.7132920026779157 8.169716536998747 5.1872652173042324 79.494657754898071 25.554845035076141 5.2431360483169547 5.0084538012742996 10.695528164505959 5.9687915891408911 4.5154399275779715 20.848515838384628 5.821069821715354 6.2490785866975829 5.6123164743185043 4.3184631466865531 491.40341247618198 7.4347087889909735 5.1712875813245747 7.904267117381095
leaf_count=39 37 354 18 71 1123 22 36 45 19 31 26 36 1878 40 79 50 36 29 62 28 37 26 36 39 25 395 125 22 21 49 25 20 95 25 26 26 21 2495 35 25 37
internal_value=-2.32549e-06 -0.0244642 -0.0582569 0.0420642 0.0494722 0.0589549 0.0623276 -0.0114665 0.00190826 -0.0450935 0.0451876 0.0610587 0.0649505 0.0224293 0.0376516 0.0239045 0.00697528 -0.0627905 -0.0367772 0.0663853 -0.0152748 0.03551 0.0667783 -0.063532 -0.0551551 -0.058298 -0.0439088 -0.0294227 -0.042118 -0.0187607 -0.0653915 0.0674732 0.0620561 0.0295455 0.0190461 0.048314 -0.065629 -0.0654593 -0.0572259 -0.00787837 0.0678668
internal_weight=1588.33 1141.16 756.898 384.262 354.612 306.96 447.17 47.6515 18.7557 29.6506 31.3565 302.17 428.414 18.3164 57.6854 40.2499 29.0447 725.541 31.177 244.484 17.4342 16.4745 410.097 708.739 138.592 130.422 46.6089 16.8017 11.5586 21.0541 22.2459 401.384 25.2139 20.4936 14.6725 10.3065 83.8131 570.148 78.7443 15.8668 396.869
internal_count=7664 5533 3774 1759 1632 1425 2131 207 81 127 139 1403 2050 79 252 173 123 3635 136 1151 74 71 1971 3563 679 640 224 72 50 99 96 1935 113 87 62 45 416 2884 389 74 1915
is_linear=0
shrinkage=0.05


Tree=13
num_leaves=45
num_cat=0
split_feature=46 25 32 16 37 10 4 5 3 48 32 26 38 27 23 26 27 37 20 26 25 13 10 3 25 26 25 26 3 4 26 10 27 26 32 3 10 20 10 13 13 32 32 49
split_gain=901.081 955.3 93.0047 84.1931 55.8628 36.0062 26.5529 28.0633 22.0628 15.8366 14.5509 14.5341 22.9813 11.0721 11.6757 9.96793 12.5844 8.56938 8.1926 7.46061 7.24263 9.71658 5.96458 6.81207 4.54035 3.77463 3.33147 11.1432 3.29493 2.76222 2.72266 2.11832 2.11749 2.0715 1.88167 1.14227 0.994166 0.956683 0.817735 0.877013 0.650914 0.371414 3.40282 0.102838
threshold=-0.90677414834499348 -0.70355910062789906 -0.43038383126258845 1.0000000180025095e-35 1.0000000180025095e-35 1.0000000180025095e-35 0.54151454567909252 1.0000000180025095e-35 1.7152823805809023 1.0000000180025095e-35 0.073580510914325728 -0.10911343619227408 1.0000000180025095e-35 1.0000000180025095e-35 1.0000000180025095e-35 1.562483072280884 1.0000000180025095e-35 1.0000000180025095e-35 -1.3854687809944151 1.2496665716171267 0.38823308050632482 -0.13624269142746923 1.5180795788764956 0.45659928023815161 -0.11877522990107535 -0.90664806962013234 0.38823308050632482 -1.0142436623573301 1.5354704856872561 0.54151454567909252 0.83227843046188366 2.2617258429527287 1.0000000180025095e-35 -0.025757122784852978 -0.38213956356048578 2.2547179460525517 0.77443328499794017 -1.1821115612983701 0.77443328499794017 -0.13624269142746923 -0.13624269142746923 0.073580510914325728 0.16664308309555056 -0.040581190958619111
decision_type=2 2 2 2 2 2 2 2 2 2 2 2 2 2 2 2 2 2 2 2 2 2 2 2 2 2 2 2 2 2 2 2 2 2 2 2 2 2 2 2 2 2 2 2
left_child=6 2 4 9 5 11 17 -8 13 15 43 29 30 14 22 26 24 18 -1 33 -18 -22 23 38 -17 -25 41 -28 32 37 -13 -10 -29 -11 -19 36 -20 -2 39 -7 -32 -3 -43 -4
right_child=1 3 10 -5 -6 8 7 -9 31 19 -12 12 -14 -15 -16 16 20 34 35 -21 21 -23 -24 25 -26 -27 27 28 -30 -31 40 -33 -34 -35 -36 -37 -38 -39 -40 -41 -42 42 -44 -45
leaf_value=-0.0049120144940357664 0.030607205373176662 -0.0641306506945096 -0.03538538507708841 0.064863939493860642 -0.067188286407841899 -0.0062930073297189056 -0.049313280493465408 0.068594479519621707 0.061790192685172343 -0.015395820434787183 0.015131890559726999 0.014352142456109643 -0.0680364071533439 0.060323210422763188 0.050820258795524126 -0.017173585132655111 -0.060716645788104817 -0.005280975314261401 0.066037639524313865 0.027407320427462491 0.031503480729325621 -0.05795180963865193 -0.065772445052490192 0.047491999232271806 0.044442499312706434 -0.0082746492114030897 0.016955061385654051 -0.063169756797019139 -0.013603320086123092 0.026865202702809871 0.060625850338492548 0.025439931348899436 -0.022039412868583248 -0.057192370045514099 0.034761401279691649 0.029198783450134609 0.031044639160156345 0.065917970750849736 -0.050737533360367494 -0.034937011472220877 0.027912618877526735 -0.017112339441664903 -0.062809340051315138 -0.068265759212408614
leaf_weight=3.9260769188404074 5.0016187727451316 569.13308680057526 4.7081293761730256 13.095586329698561 9.3550336956977826 6.4527773261070251 10.57750925421715 7.9424382001161566 20.356390699744228 8.5706467032432556 7.3988927453756324 7.2114949971437516 4.4753987342119208 4.9314436912536612 5.1177222579717627 5.727291539311409 33.65321259200573 5.1067876070737839 392.89817874133587 6.3123259842395774 5.4821881055831909 4.7121285349130613 6.0090747326612464 4.520350456237793 4.3854877799749357 5.9275384247302991 5.3798089027404776 42.844867840409279 5.3670866489410392 7.1739352047443381 14.543182954192167 8.1983643025159818 5.3000291585922232 5.25530730187893 4.8062392473220807 4.9210928976535788 5.1734399050474158 222.38918368518353 4.543614223599433 5.3498480618000084 5.4699137657880739 7.6203823685646084 12.9911473095417 17.21171872317791
leaf_count=17 23 2971 20 64 43 28 45 36 94 37 31 31 19 21 22 27 165 21 1946 27 23 23 27 20 19 26 22 217 25 31 68 36 26 23 20 22 24 1075 20 23 25 38 67 76
internal_value=-6.45532e-06 -0.0238817 0.0408357 -0.0569991 0.0480776 0.0514747 0.0608901 0.00191993 0.0194892 -0.0593007 -0.0434758 0.0599289 0.0267045 -0.00324865 -0.0129818 -0.0605578 -0.0383373 0.0634873 0.0646145 -0.0144143 -0.0497428 -0.010882 -0.0242926 -0.0127784 0.0106915 0.0174573 -0.0623368 -0.0482865 -0.0551279 0.0642653 0.0443147 0.0527367 -0.0592843 -0.0344061 0.0150814 0.0653147 0.0656743 0.0653006 -0.0322845 -0.021382 0.0536766 -0.0636473 -0.0477194 -0.0632736
internal_weight=1547.53 1112.18 376.346 735.831 347.027 337.672 435.352 18.5199 71.4071 722.735 29.3187 266.265 31.7 42.8524 37.9209 702.597 53.9603 416.832 406.919 20.1383 43.8475 10.1943 32.8032 26.7941 10.1128 10.4479 648.636 58.8918 53.512 234.565 27.2246 28.5548 48.1449 13.826 9.91303 402.993 398.072 227.391 16.3462 11.8026 20.0131 589.745 20.6115 21.9198
internal_count=7664 5533 1759 3774 1632 1589 2131 81 317 3710 127 1272 143 187 166 3623 257 2050 2009 87 211 46 144 117 46 46 3366 290 268 1129 124 130 243 60 41 1992 1970 1098 71 51 93 3076 105 96
is_linear=0
shrinkage=0.05


Tree=14
num_leaves=45
num_cat=0
split_feature=46 25 33 32 37 21 2 4 5 26 32 4 23 27 8 37 2 4 48 20 20 2 26 4 32 20 26 26 25 21 25 25 21 32 21 26 8 25 44 4 2 2 25 26
split_gain=837.523 888.098 128.404 86.1968 51.9128 35.1729 32.9519 25.0015 25.9996 14.4894 13.5291 10.7598 9.54745 15.4393 21.5381 8.28597 7.83732 6.98975 5.96759 4.95334 5.01614 4.92284 4.17326 7.27579 5.94678 3.8772 5.54426 3.69213 17.5082 2.95752 2.24141 1.794 1.75015 1.74364 1.54672 1.34057 1.28752 1.15652 0.958515 0.427318 0.426242 0.422345 0.399569 0.043021
threshold=-0.90677414834499348 -0.70355910062789906 1.0000000180025095e-35 -0.43038383126258845 1.0000000180025095e-35 -0.29230615496635431 -0.96626791357994068 0.54151454567909252 1.0000000180025095e-35 -0.38012988865375513 0.073580510914325728 -1.0000000180025095e-35 1.0000000180025095e-35 1.0000000180025095e-35 1.9529808759689333 1.0000000180025095e-35 -1.5029940009117124 1.0000000180025095e-35 1.0000000180025095e-35 -1.0000000180025095e-35 -0.85673999786376942 -0.42954186350107187 1.562483072280884 -1.0000000180025095e-35 -0.42781330645084376 -0.043311025016009801 1.3508507609367373 -0.93971970677375782 0.041990172117948539 1.2707184553146365 -0.3144544512033462 -0.40801332890987391 1.229586184024811 -0.38213956356048578 1.7231729030609133 0.052304459735751159 1.0000000180025095e-35 -0.2370229288935661 1.0000000180025095e-35 0.21956773288547995 -0.42954186350107187 -0.96626791357994068 0.42134952545166021 -0.062246616929769509
decision_type=2 2 2 2 2 2 2 2 2 2 2 2 2 2 2 2 2 2 2 2 2 2 2 2 2 2 2 2 2 2 2 2 2 2 2 2 2 2 2 2 2 2 2 2
left_child=7 3 18 4 5 9 -7 15 43 36 38 25 13 14 19 16 -1 21 22 20 -8 -4 27 24 30 26 35 28 -3 -21 -24 -20 -22 -17 39 -11 -2 -26 -5 41 -14 -18 -30 -9
right_child=1 2 17 10 -6 6 12 8 -10 11 -12 -13 40 -15 -16 33 34 -19 31 29 32 -23 23 -25 37 -27 -28 -29 42 -31 -32 -33 -34 -35 -36 -37 -38 -39 -40 -41 -42 -43 -44 -45
leaf_value=-0.0047117952147400057 0.065823241296296575 -0.061469984908114596 0.018263957751017173 -0.03204933865538101 -0.065591217455728337 -0.059897193673792516 0.0088309907632155554 -0.028842594129444191 0.06685618463926804 0.016288154851426269 0.014476513198189774 -0.024758509820796366 0.032576734684846856 0.070539955029435872 0.062825791950816279 -0.0050575331385703873 0.047032720070793538 -0.0064335067858237883 -0.0085045185322010809 -0.01423940940143925 -0.024719755778166541 0.06926625710944305 -0.016408212664376347 -0.062104336075159111 -0.055586535955921237 0.064012377278915067 0.052920048327625285 -0.063635710721424515 0.013240581353966295 0.036351147832346074 0.026566756399356097 -0.042814587606053028 -0.067378505595213717 0.033513263659842189 0.028578726983263809 -0.014807892283628919 0.041055429714972377 -0.016567813257693739 -0.06903374487959868 0.03840740138950835 0.06764552834698534 0.065489981217976431 -0.0037831756870604105 -0.057780799732655798
leaf_weight=3.9306368827819815 197.90785038471222 44.499232366681099 8.0717067569494301 5.7314118444919631 9.1336425244808179 10.080613017082213 4.727574110031127 5.2677716463804254 7.7718247622251502 6.9269775301218033 7.3925942480564109 6.5798283070325843 4.792723253369334 10.67788392305374 10.355486437678335 5.1098835468292236 17.153543993830681 5.3685420006513587 8.1911181360483187 5.2439136058092135 7.2212595045566577 16.939039528369904 4.7362732142210007 25.6993168592453 7.5478726178407669 12.308304354548453 9.5872818827629089 563.85854026675224 6.9216641783714277 4.3680232018232346 5.3842025548219699 8.380092188715933 6.2000180035829544 4.7740435898303968 5.8116800189018241 5.0947924256324768 12.965136036276816 4.4750776737928373 15.84608668088913 7.5869787484407416 15.33525277674198 360.88352024555206 4.8480933755636215 5.2162296175956735
leaf_count=17 986 233 34 25 43 46 20 22 36 31 31 29 20 48 48 21 85 23 35 23 31 82 22 133 37 58 46 3044 31 20 23 37 27 20 26 22 61 20 71 37 73 1844 20 23
internal_value=-8.68878e-06 -0.0233189 -0.0557956 0.0396595 0.0467405 0.0500497 0.0205073 0.0595254 0.00189518 0.0591967 -0.0419482 0.0304448 0.0330273 0.0201956 0.00452159 0.0620982 0.0632364 0.0435728 -0.0602699 -0.0184817 -0.0333061 0.0543335 -0.0610308 -0.0441931 -0.0214044 0.0416996 0.0265002 -0.0622485 -0.0473917 0.00953871 0.00633836 -0.0275889 -0.0480785 0.0144806 0.0639418 0.00260063 0.064525 -0.0438347 -0.0612861 0.0643865 0.061469 0.064792 0.00608963 -0.0474536
internal_weight=1506.9 1083.4 714.921 368.477 339.507 330.373 79.0027 423.506 18.2558 251.37 28.9701 40.4972 68.9221 48.7942 38.1163 405.25 395.366 30.3793 684.541 27.7608 18.1489 25.0107 667.97 47.8427 22.1434 33.9174 21.6091 620.128 56.269 9.61194 10.1205 16.5712 13.4213 9.88393 391.436 12.0218 210.873 12.023 21.5775 385.624 20.128 378.037 11.7698 10.484
internal_count=7664 5533 3774 1759 1632 1589 356 2131 81 1233 127 186 310 217 169 2050 2009 139 3635 121 78 116 3563 235 102 157 99 3328 284 43 45 72 58 41 1992 53 1047 57 96 1966 93 1929 51 45
is_linear=0
shrinkage=0.05


Tree=15
num_leaves=63
num_cat=0
split_feature=4 28 2 37 13 13 48 32 32 32 21 26 48 39 32 32 16 47 24 45 20 26 32 26 10 26 26 27 20 21 32 27 26 21 26 4 2 32 27 32 47 13 8 27 13 3 27 30 8 26 26 47 13 32 27 44 47 13 26 47 26 8
split_gain=446.643 256.185 187.723 156.371 73.5218 71.7932 63.9587 62.3 52.0016 52.6448 46.504 45.1026 34.8414 33.9957 28.0908 135.472 27.2951 23.5864 19.0285 17.8894 20.7315 17.5703 14.5098 13.5121 9.62653 9.30355 10.3564 12.9764 9.23641 7.6224 7.10388 6.85425 6.4742 6.43553 6.31343 6.10083 5.27179 5.02305 4.783 4.53641 4.69366 4.2782 3.31418 3.01373 2.68679 3.75264 2.31429 2.1369 2.11788 1.87678 1.7894 1.72154 1.67886 1.67014 1.39135 1.28392 1.15322 1.05701 0.956293 0.558714 0.20074 0.192993
threshold=0.21956773288547995 1.0000000180025095e-35 -0.96626791357994068 1.0000000180025095e-35 -0.44817742705345148 0.90353974699974071 1.0000000180025095e-35 1.5699933767318728 0.52072721719741832 -0.43038383126258845 -0.16890948265790937 1.562483072280884 1.0000000180025095e-35 1.0000000180025095e-35 -0.43038383126258845 -0.18089607357978818 1.0000000180025095e-35 1.2816638350486758 1.0000000180025095e-35 -0.89105536788702 -1.1821115612983701 -1.0142436623573301 -0.012303512543439863 -0.7246553599834441 1.0000000180025095e-35 1.5234034061431887 -0.92479324340820301 1.0000000180025095e-35 -0.57203984260559071 -0.12777725607156751 -0.1755910590291023 1.0000000180025095e-35 -1.0142436623573301 0.65373504161834728 -0.84112539887428273 0.86346137523651134 0.6439102590084077 0.37012127041816717 1.0000000180025095e-35 0.80858701467514049 -0.35185450315475458 -0.13624269142746923 1.0558010935783388 1.0000000180025095e-35 -0.24022094160318372 -0.052867688238620751 1.0000000180025095e-35 1.0000000180025095e-35 5.5416998863220224 0.34565299749374395 0.63004586100578319 0.14532873779535296 -0.44817742705345148 0.1812088415026665 1.0000000180025095e-35 1.0000000180025095e-35 -1.4348431825637815 -1.0000000180025095e-35 1.4672586321830752 -1.0000000180025095e-35 -0.38621778786182398 1.0000000180025095e-35
decision_type=2 2 2 2 2 2 2 2 2 2 2 2 2 2 2 2 2 2 2 2 2 2 2 2 2 2 2 2 2 2 2 2 2 2 2 2 2 2 2 2 2 2 2 2 2 2 2 2 2 2 2 2 2 2 2 2 2 2 2 2 2 2
left_child=1 6 11 4 14 8 13 12 9 10 25 21 17 47 29 18 19 32 46 41 -21 24 43 -19 -3 26 57 44 -7 42 -11 51 59 -31 -8 -14 50 54 -13 40 -17 -12 55 -5 -28 60 -16 53 61 -49 -22 -32 -15 -1 -23 -4 -34 -6 -48 -2 -46 -30
right_child=7 2 3 22 5 28 34 -9 -10 30 16 38 35 52 15 39 -18 23 -20 20 36 37 -24 -25 -26 -27 27 -29 48 33 31 -33 56 -35 -36 -37 -38 -39 -40 -41 -42 -43 -44 -45 45 -47 58 49 -50 -51 -52 -53 -54 -55 -56 -57 -58 -59 -60 -61 -62 -63
leaf_value=-0.064019604323110255 -0.027099963313200904 0.038143019058819082 0.045878786144530614 -0.060103857248893569 0.061254312837017488 0.0027384871363020308 0.061451659219947365 0.065930351965041004 0.062733278450318689 -0.06211838680526191 0.059136324774353682 0.052849100770912399 0.053512226959892641 0.032501053782154503 -0.05949820980872015 0.0012078748591227519 0.060974809995083028 0.047804035318542416 0.048627094048729329 0.05044699256223311 -0.059182444026933595 -0.062019609369357478 0.027934186170714515 -0.043400160533265418 -0.044292256816753917 0.06536950331072848 0.011170459625083133 0.057220912948867046 0.064189368213083506 -0.0083071549847088168 -0.052814707664576965 0.028771554425098145 -0.03503847349835839 0.051358694626601434 0.0021297114959426579 -0.012551844595940706 -0.0035982670552010183 -0.00063623072763340134 0 0.066309325022799501 0.050124322258324944 0 0.016467221972609837 -0.020092539273125175 -0.024352275556786866 0.0097932086520192817 -0.0035156829266324283 -0.04931289314793439 0.016666390861931012 -0.0021257373683485912 -0.020991786451128279 -0.0078648827387231817 -0.0020642811513707214 -0.024569092616304449 -0.025555395725580306 0.063782244760016635 -0.064306184944426234 0.024357198720552579 -0.037858247302652276 -0.0010468286532434848 -0.052679529973174655 0.046117227230289437
leaf_weight=121.6032772064209 4.1899882853031158 7.7956434190273267 25.476608619093895 44.34355366230011 13.657200247049333 8.0858181565999967 12.381088167428972 10.034136161208151 31.434527307748795 34.276379570364952 4.6764297038316727 11.824329525232317 6.766424283385275 8.6912568956613523 30.300515174865723 6.2155903577804557 8.7624136954545957 7.3013137131929398 4.4076596200466147 4.9003856331109992 39.636367172002792 74.242437303066254 5.1516710221767417 6.9402739852666837 4.9182228147983551 22.096668720245361 6.1981097757816377 7.7553896605968466 69.630771622061729 7.7555792778730419 7.112326502799986 4.3846502155065528 8.1065779924392682 8.7348340749740583 7.1265239864587775 5.6069301813840866 5.9174752235412589 3.9245005995035163 6.2363527715206137 92.065729737281799 28.016707137227058 6.3114569336175901 5.1485134214162818 7.1483970284461966 5.5133157521486309 4.538220882415767 3.9815309941768628 4.2323334515094739 4.0040676295757285 4.0754888951778412 5.3481127023696891 3.8171875923871994 4.9253058433532706 4.8601363748311988 5.2132466137409201 261.19446784257889 270.15271510183811 5.0751811265945426 4.847078949213028 4.2475310266017896 4.7921362966299048 17.500929236412048
leaf_count=639 20 37 135 237 71 38 59 49 165 187 22 59 31 40 164 33 45 35 22 22 208 403 24 36 25 115 32 38 351 39 38 22 42 42 31 24 30 19 30 486 146 32 26 35 29 23 21 22 20 20 26 20 22 23 28 1362 1482 26 24 20 26 86
internal_value=-5.81395e-06 0.0146826 0.0245195 0.0325195 0.0381924 0.0197468 -0.0421827 -0.0517954 0.00409591 -0.00561435 0.00960198 -0.0354798 -0.0557794 -0.0533782 0.0506686 0.0339278 -0.0174246 -0.059167 -0.0413869 -0.0285315 -0.0399711 -0.0490768 -0.047138 0.00309857 0.00498481 0.0388312 0.0252977 0.00576878 0.0549805 0.0597347 -0.049569 -0.0190884 -0.0622774 0.0241409 0.0411846 0.0245017 -0.0495763 -0.0573407 0.0353816 0.0600503 0.0416708 0.0276358 0.0616397 -0.0551331 -0.0147038 -0.0258465 -0.0526101 -0.0609614 0.0594813 -0.0294173 -0.055306 -0.0395101 0.0203704 -0.0627474 -0.0600366 0.0623736 -0.0636 0.0532521 -0.0248126 -0.016015 -0.0414615 0.0611807
internal_weight=1465.61 1142.26 974.369 860.214 803.57 325.426 167.895 323.346 226.204 194.769 145.179 114.155 313.312 148.388 478.145 169.835 75.5526 300.938 43.5368 66.7902 55.8023 96.0941 56.6436 14.2416 12.7139 69.6262 47.5296 28.7972 99.2216 308.31 49.5905 15.3142 286.697 16.4904 19.5076 12.3734 50.902 83.3802 18.0607 126.298 34.2323 10.9879 291.82 51.492 21.0418 14.8437 39.1291 134.771 91.1358 8.30782 44.9845 10.9295 13.6166 126.463 79.4557 286.671 278.259 18.7324 8.82861 8.43752 10.3055 87.1317
internal_count=7664 5925 5069 4468 4172 1672 856 1739 1177 1012 745 601 1690 766 2500 896 385 1635 231 340 286 512 296 71 62 360 245 148 495 1604 267 80 1564 81 90 55 264 450 89 665 179 54 1523 272 110 78 209 704 457 42 234 58 62 662 431 1497 1524 97 45 40 55 437
is_linear=0
shrinkage=0.05


Tree=16
num_leaves=46
num_cat=0
split_feature=46 25 28 16 26 27 26 26 28 25 25 25 10 44 0 10 30 0 13 0 1 0 26 25 0 5 26 26 47 26 26 26 3 26 13 26 26 47 13 47 13 13 13 3 13
split_gain=734.465 781.193 79.2206 69.0914 26.1193 22.5826 24.8398 21.377 16.5338 15.6558 13.9544 14.0956 10.1307 9.71476 9.61372 9.47306 8.29743 19.3518 13.2831 6.91987 5.96882 7.44525 5.24799 7.59407 5.15747 4.29471 6.44296 4.0376 3.49358 3.04252 2.91294 6.63291 2.80358 2.71782 2.38014 1.5098 3.35545 0.987457 3.37902 0.968251 0.900403 0.796767 0.656996 0.605272 0.380533
threshold=-0.90677414834499348 -0.70355910062789906 1.0000000180025095e-35 1.0000000180025095e-35 -1.0142436623573301 1.0000000180025095e-35 -0.62089720368385304 -1.0142436623573301 1.0000000180025095e-35 -0.42778077721595759 0.38823308050632482 0.3921936303377152 1.0000000180025095e-35 -2.4821828603744502 0.78328223526477825 1.5180795788764956 1.0000000180025095e-35 -0.70175373554229725 -0.13624269142746923 -0.70175373554229725 -1.0000000180025095e-35 0.78328223526477825 1.3965346217155459 0.73575007915496837 1.0000000180025095e-35 1.0000000180025095e-35 1.1619601249694826 1.562483072280884 0.6467987895011903 1.265528738498688 0.78708699345588695 -0.34308625757694239 3.2137145996093754 -0.54359629750251759 -0.55215567350387562 1.1820239424705508 1.2422144412994387 0.096213240176439299 -0.44817742705345148 0.59027665853500377 1.007517993450165 0.59160500764846813 -0.34419919550418848 0.037038248963654048 -0.34419919550418848
decision_type=2 2 2 2 2 2 2 2 2 2 2 2 2 2 2 2 2 2 2 2 2 2 2 2 2 2 2 2 2 2 2 2 2 2 2 2 2 2 2 2 2 2 2 2 2
left_child=8 2 7 10 15 6 24 12 9 -1 25 -12 37 -8 22 -4 -10 -18 -19 -15 -21 30 33 -24 42 32 41 -11 -9 -7 31 -22 35 34 -13 -3 -37 38 -2 -39 44 -27 -6 -26 -38
right_child=1 3 4 -5 5 29 13 28 16 27 11 14 -14 19 -16 -17 17 18 -20 20 21 -23 23 -25 43 26 -28 -29 -30 -31 -32 -33 -34 -35 -36 36 40 39 -40 -41 -42 -43 -44 -45 -46
leaf_value=0.060480682323793139 0.032858318062774297 -0.061747826658295757 0.062255930715939906 0.061189200883597875 -0.014170940628867104 0.071084695773381001 -0.031841399314383366 -0.060025491497444905 0.062317118671228057 -0.051813210004602928 0.040524181578507047 1.3050571302428746e-05 -0.040787029872807051 -0.0085153624276669698 0.024920333879707945 -0.0094949474684827943 -0.060633487906175877 0.061621535453088662 -0.0084135664988524931 0.059445332361066361 0.026662582625265364 0.054143622052730433 -0.046768834601862125 0.018049667156420215 -0.02949210447342995 -0.051559608452068285 0.0088193517246604042 0.0056148459898635698 -0.0098243063572905926 0.019422939436217132 0.034248274779999373 -0.041596094618330776 -0.01905333006629507 -0.062272450152805185 -0.045876547870868999 -0.011176659409922031 -0.045975907530033416 0.054503552620137508 -0.015636450532106171 0.017814071010156422 -0.029727289849684452 -0.018499437933734122 0.0076594253697443854 -0.066103474638284143 -0.060822775105915189
leaf_weight=7.8702735304832485 8.3931532949209231 452.31008970737457 171.38491404056549 11.994349732995031 5.9041437208652496 28.070296704769135 4.7451233118772498 19.617447793483738 338.29577898979187 5.9934709966182691 5.0437811166048041 4.4344953298568726 6.3177260458469382 6.9076545089483252 4.5417586565017691 4.3493198156356803 3.6901113539934149 32.28611595928669 8.0687307119369489 27.398514628410339 5.7064275294542339 11.386898249387739 9.5681330412626284 7.0229582935571662 5.9988577514886838 25.176895305514339 5.5018627643585196 4.8741136193275452 4.9963153153657904 4.4905501455068579 4.1803586035966864 6.5807912945747402 5.7169226706027976 32.609892547130585 5.8639049530029279 5.6830271184444419 32.083881050348282 4.5719754844903928 4.8890141695737865 5.6924994438886642 8.0645192712545377 4.1074203848838797 5.6978038251400012 5.0810541659593582 55.88682846724987
leaf_count=40 38 2586 913 64 27 135 21 93 1820 25 22 21 29 32 20 19 17 171 38 134 27 55 49 33 27 140 27 20 22 21 20 30 28 181 30 31 169 21 21 25 41 21 26 23 311
internal_value=0 -0.0223881 0.0378886 -0.053842 0.0480082 0.0297822 0.0163878 -0.0172226 0.057306 0.0104929 -0.0560175 -0.0337336 0.0110485 0.0316536 -0.040192 0.0604082 0.0595538 0.0373064 0.0476327 0.0370071 0.0428373 0.0248339 -0.0455747 -0.0195808 -0.0278663 -0.0585375 -0.0387527 -0.0273326 -0.0508118 0.0648999 0.00234135 -0.00989828 -0.0596869 -0.0548368 -0.0274217 -0.0600621 -0.0519891 0.026255 0.0148129 0.0379878 -0.0542127 -0.0478517 -0.00329607 -0.0507777 -0.0560418
internal_weight=1429.05 1027.97 352.361 675.611 297.883 122.148 89.5876 54.4781 401.079 18.7379 663.616 69.0849 29.8644 66.9058 64.0411 175.734 382.341 44.045 40.3548 62.1606 55.253 27.8545 59.4994 16.5911 22.6819 594.531 34.7862 10.8676 24.6138 32.5608 16.4676 12.2872 559.745 42.9083 10.2984 554.028 101.718 23.5466 13.2822 10.2645 96.0352 29.2843 11.6019 11.0799 87.9707
internal_count=7664 5533 1759 3774 1510 578 422 249 2131 85 3710 356 134 319 334 932 2046 226 209 298 266 132 314 82 103 3354 188 45 115 156 77 57 3166 232 51 3138 552 105 59 46 521 161 53 50 480
is_linear=0
shrinkage=0.05


Tree=17
num_leaves=52
num_cat=0
split_feature=25 25 32 33 28 26 4 4 37 25 10 28 32 25 21 20 8 20 26 33 4 26 26 26 27 26 25 25 25 1 3 0 26 13 49 49 19 13 32 13 4 26 3 17 49 25 21 25 26 26 26
split_gain=555.592 693.279 142.89 102.817 72.7143 30.6396 19.3806 18.7314 17.0451 16.0781 13.0581 11.7811 9.69128 12.561 9.43601 13.6355 9.80352 6.38609 5.96504 4.96618 9.44963 4.95985 4.9197 4.75305 9.56971 5.81532 22.4214 4.45526 4.00385 3.87554 5.7471 3.84266 3.29967 3.01399 2.55329 2.16391 2.11198 1.5942 1.54911 1.41986 1.40973 1.91041 1.28251 1.0435 0.792398 0.453212 0.248542 0.132988 0.106382 0.0974168 4.95945
threshold=-0.70355910062789906 1.4780246019363406 0.52072721719741832 1.0000000180025095e-35 1.0000000180025095e-35 -1.0142436623573301 0.54151454567909252 0.86346137523651134 1.0000000180025095e-35 1.0496005415916445 1.0000000180025095e-35 1.0000000180025095e-35 1.1544216275215151 0.81961387395858776 -0.12777725607156751 -0.81606853008270253 1.0558010935783388 -1.2634544968605039 -0.71551790833473194 1.0000000180025095e-35 -0.42432591319084162 1.3965346217155459 -0.95530971884727467 1.562483072280884 1.0000000180025095e-35 -0.93086612224578846 0.041990172117948539 0.38823308050632482 1.7313231825828554 1.0000000180025095e-35 2.2247493267059331 -1.0000000180025095e-35 1.3118616342544558 -0.34419919550418848 -0.020758219994604584 0.062498262152075774 0.4528880268335343 -0.13624269142746923 0.14920179545879367 -0.55215567350387562 0.21956773288547995 -0.90921512246131886 3.2137145996093754 1.0000000180025095e-35 -0.10401469841599463 1.5814511775970461 0.94166061282157909 -0.12789230048656461 -0.73330694437026966 -1.0142436623573301 -0.85588634014129628
decision_type=2 2 2 2 2 2 2 2 2 2 2 2 2 2 2 2 2 2 2 2 2 2 2 2 2 2 2 2 2 2 2 2 2 2 2 2 2 2 2 2 2 2 2 2 2 2 2 2 2 2 2
left_child=4 2 3 23 5 10 11 8 14 27 19 -3 13 -4 16 22 17 -6 -9 20 -1 -11 -16 25 37 26 47 -5 33 48 -31 -26 46 45 -28 -36 -22 -25 42 -40 49 -42 43 -27 -8 -13 -7 -2 -17 -19 -51
right_child=1 6 12 9 7 32 44 18 -10 21 -12 28 -14 -15 15 29 -18 40 -20 -21 36 -23 -24 24 31 38 34 -29 -30 30 -32 -33 -34 -35 35 -37 -38 -39 39 -41 41 -43 -44 -45 -46 -47 -48 -49 -50 50 -52
leaf_value=-0.018790512044838795 -0.060099835337548847 -0.0029241596865044453 -0.052439965236673686 0.015714893041580417 0 -0.062338024550524174 0.00048366623534292722 0.022200681801769324 -0.024342491792172377 -0.05604660756410456 -0.039449690627324473 0.056400016553311831 0.059665404739453545 0.054804019175925714 0.019880223278822644 0.042700299571429949 -0.006859673879533768 0.063409490102046523 -0.050628031721858362 0.063979340774788229 0.013735910393691257 0.010895433431476462 -0.040706324407470157 0.025536526602649063 -0.057093400317190547 -0.060914704084300844 -0.016230543661707682 0.064533502050523509 0.062978489211441974 -0.0031110183331051929 0.050439159803412383 -0.011072127666275664 -0.0061806601716947896 -0.0023324724840593936 0.046603955485990306 0.00062318196730373103 0.060816354813819966 -0.012668037763216468 -0.0064367320276348325 -0.047555715533966474 0.055125099275467451 0.0095269586830116978 -0.024549436645020444 -0.022164378492823315 -0.026269320913798435 0.0267742659538052 -0.02906525718784507 -0.027977115726552478 0.067230729253559648 0.0025344535700170343 0.057635165997024375
leaf_weight=8.6618467569351214 42.227094829082489 7.3158537447452536 4.5501428544521314 7.7069610059261349 4.5670873820781699 15.853308677673345 4.6675650775432587 4.4823673218488693 6.3271799236536017 4.4911970347166044 6.2411662191152564 6.6923218667507189 29.332689166069031 4.3737575113773346 5.3225250244140625 11.084392577409742 5.401244029402732 191.11109304428101 4.8458509445190412 9.5436434894800204 4.6551579385995847 4.8334904462099075 6.1687753945589048 4.3914527297019958 31.299022391438481 504.42929624021053 4.4480848908424386 17.610675618052483 183.13120131194592 8.6619605422019976 10.05123622715473 6.2467505484819439 4.2559578865766516 4.0831896215677252 4.812449157238003 5.0229053795337677 7.9705198854207993 4.4679099619388563 4.1419005393981934 5.3444873541593534 4.3801531791687012 5.468116343021391 4.769430771470069 3.6309817880392066 4.6432258784770948 6.8585727214813232 4.0809659957885733 3.5401675552129737 15.63493272662163 4.5192615091800681 121.20091152191162
leaf_count=37 240 30 25 33 22 77 20 20 31 20 29 37 157 23 23 55 25 1073 22 46 20 22 28 20 168 2980 20 90 1023 38 50 30 18 21 22 22 41 22 23 31 23 27 24 20 20 37 20 20 76 22 641
internal_value=0 -0.0226191 -0.0467856 -0.0522162 0.0441311 -0.00650746 0.0552167 0.0517214 0.0533596 0.0308239 0.0218163 0.0583715 0.0461901 0 0.0546799 0.0345388 0.0579584 0.0590478 -0.0163873 0.0352251 0.0198175 -0.0231682 -0.0128987 -0.0568409 -0.039255 -0.058164 -0.0415843 0.0510244 0.0606333 0.0466643 0.0264978 -0.0500521 -0.0492559 0.0339377 0.0121838 0.0258078 0.0461066 0.00643158 -0.0599775 -0.0324052 0.0598662 0.0334803 -0.0604137 -0.0606917 -0.0136267 0.0446196 -0.057479 -0.0583734 0.0591423 0.0605627 0.0557295
internal_weight=1389.55 919.063 701.671 663.414 470.49 61.2626 217.392 409.227 399.899 34.6423 37.0723 208.081 38.2566 8.9239 393.572 56.9238 336.648 331.247 9.32822 30.8312 21.2875 9.32469 11.4913 628.772 46.4051 582.367 60.0507 25.3176 200.765 45.4325 18.7132 37.5458 24.1902 17.6341 14.2834 9.83535 12.6257 8.85936 522.316 9.48639 326.68 9.84827 512.83 508.06 9.31079 13.5509 19.9343 45.7673 26.7193 316.831 125.72
internal_count=7664 5200 4012 3807 2464 288 1188 2176 2134 165 173 1148 205 48 2103 270 1833 1808 42 144 98 42 51 3642 240 3402 324 123 1118 219 88 198 115 95 64 44 61 42 3078 54 1786 50 3024 3000 40 74 97 260 131 1736 663
is_linear=0
shrinkage=0.05


Tree=18
num_leaves=54
num_cat=0
split_feature=25 25 32 33 28 2 26 4 25 4 37 10 28 33 32 25 48 26 2 14 33 31 26 25 26 38 25 13 19 25 26 25 47 13 10 13 13 26 32 32 2 26 2 32 25 13 25 19 25 25 0 47 26
split_gain=516.616 646.735 133.505 96.5538 68.089 32.1 28.4265 18.4522 14.9529 13.7284 12.5106 12.1229 11.3371 10.0689 9.06598 11.8024 9.03308 6.83775 6.11912 4.87356 13.5072 4.61552 4.58564 4.30369 4.15315 7.09741 6.59973 6.06258 3.96094 3.9373 3.85562 15.4853 3.37169 2.86137 2.27975 2.79347 2.19726 1.09761 3.17974 23.1451 2.07548 1.92665 0.979442 0.716304 0.65969 0.470352 0.456321 0.380842 0.33995 0.0694404 0.0473172 0.047244 0.00924534
threshold=-0.70355910062789906 1.4780246019363406 0.52072721719741832 1.0000000180025095e-35 1.0000000180025095e-35 -0.96626791357994068 -1.0142436623573301 0.54151454567909252 1.0496005415916445 0.86346137523651134 1.0000000180025095e-35 1.0000000180025095e-35 1.0000000180025095e-35 1.0000000180025095e-35 1.1544216275215151 0.81961387395858776 1.0000000180025095e-35 -1.0142436623573301 -0.42954186350107187 1.0000000180025095e-35 1.0000000180025095e-35 1.0000000180025095e-35 1.3965346217155459 0.38823308050632482 1.562483072280884 1.0000000180025095e-35 -0.40367834270000452 -0.44817742705345148 0.20646530389785769 1.7313231825828554 -0.93086612224578846 0.041990172117948539 0.6467987895011903 -0.34419919550418848 1.5180795788764956 3.5029958486557011 -0.13624269142746923 -0.99257481098175038 0.63844916224479686 -0.42781330645084376 -0.42954186350107187 -0.62089720368385304 1.0000000180025095e-35 0.14920179545879367 1.9855616092681887 -0.13624269142746923 1.5814511775970461 0.083253924734890475 -0.27403230965137476 -0.15247941762208936 0.78328223526477825 0.15044934302568438 1.562483072280884
decision_type=2 2 2 2 2 2 2 2 2 2 2 2 2 2 2 2 2 2 2 2 2 2 2 2 2 2 2 2 2 2 2 2 2 2 2 2 2 2 2 2 2 2 2 2 2 2 2 2 2 2 2 2 2
left_child=4 2 3 16 6 13 11 12 23 10 21 19 -3 17 15 -4 24 -6 51 -1 36 34 -10 -5 30 26 -26 -28 -23 33 31 49 42 46 37 -36 -21 -7 39 40 41 -39 -8 50 -9 -33 -14 -19 -45 -2 -32 -18 -16
right_child=1 7 14 8 5 9 32 44 22 -11 -12 -13 29 -15 52 -17 18 47 -20 20 -22 28 -24 -25 25 -27 27 -29 -30 -31 43 45 -34 -35 35 -37 -38 38 -40 -41 -42 -43 -44 48 -46 -47 -48 -49 -50 -51 -52 -53 -54
